<?xml version="1.0" encoding="UTF-8"?>
<!-- This network was created in GeNIe Academic, which can be used for academic teaching and research purposes only -->
<smile version="1.0" id="Network1" numsamples="10000" discsamples="10000">
	<nodes>
		<cpt id="GV">
			<state id="Normal" />
			<state id="Blockage" />
			<state id="Leak" />
			<probabilities>0.9962429257621152 0.001864269748418699 0.001892804489465924</probabilities>
		</cpt>
		<cpt id="OV">
			<state id="Normal" />
			<state id="Blockage" />
			<state id="Leak" />
			<probabilities>0.9959861130926901 0.002064012935749274 0.001949873971560374</probabilities>
		</cpt>
		<cpt id="WV">
			<state id="Normal" />
			<state id="Blockage" />
			<state id="Leak" />
			<probabilities>0.9960146478337374 0.001921339230513149 0.002064012935749274</probabilities>
		</cpt>
		<cpt id="WL">
			<state id="Normal" />
			<state id="High" />
			<state id="Low" />
			<parents>GV OV WV</parents>
			<probabilities>0.9999807799496433 9.610025178265964e-06 9.610025178265964e-06 0.006289308176100628 0.9874213836477985 0.006289308176100628 0.006289308176100628 0.006289308176100628 0.9874213836477987 0.9874213836477985 0.006289308176100628 0.006289308176100628 0.05555555555555556 0.888888888888889 0.05555555555555556 0.05555555555555555 0.05555555555555555 0.8888888888888888 0.9874213836477985 0.006289308176100628 0.006289308176100628 0.05555555555555556 0.888888888888889 0.05555555555555556 0.05555555555555555 0.05555555555555555 0.8888888888888888 0.9869281045751632 0.006535947712418299 0.006535947712418299 0.05555555555555556 0.888888888888889 0.05555555555555556 0.05555555555555555 0.05555555555555555 0.8888888888888888 0.888888888888889 0.05555555555555556 0.05555555555555556 0.3333333333333333 0.3333333333333333 0.3333333333333333 0.3333333333333333 0.3333333333333333 0.3333333333333333 0.3333333333333333 0.3333333333333333 0.3333333333333333 0.3333333333333333 0.3333333333333333 0.3333333333333333 0.3333333333333333 0.3333333333333333 0.3333333333333333 0.9869281045751632 0.006535947712418299 0.006535947712418299 0.3333333333333333 0.3333333333333333 0.3333333333333333 0.05555555555555555 0.05555555555555555 0.8888888888888888 0.888888888888889 0.05555555555555556 0.05555555555555556 0.3333333333333333 0.3333333333333333 0.3333333333333333 0.3333333333333333 0.3333333333333333 0.3333333333333333 0.9047619047619049 0.04761904761904762 0.04761904761904762 0.3333333333333333 0.3333333333333333 0.3333333333333333 0.3333333333333333 0.3333333333333333 0.3333333333333333</probabilities>
		</cpt>
		<cpt id="R1OL">
			<state id="Normal" />
			<state id="High" />
			<state id="Low" />
			<parents>GV OV WV</parents>
			<probabilities>0.9999807799496433 9.610025178265964e-06 9.610025178265964e-06 0.006289308176100628 0.9874213836477985 0.006289308176100628 0.006289308176100628 0.006289308176100628 0.9874213836477987 0.006289308176100628 0.9874213836477985 0.006289308176100628 0.05555555555555556 0.888888888888889 0.05555555555555556 0.888888888888889 0.05555555555555556 0.05555555555555556 0.9874213836477985 0.006289308176100628 0.006289308176100628 0.05555555555555556 0.888888888888889 0.05555555555555556 0.05555555555555555 0.05555555555555555 0.8888888888888888 0.9869281045751632 0.006535947712418299 0.006535947712418299 0.888888888888889 0.05555555555555556 0.05555555555555556 0.05555555555555555 0.05555555555555555 0.8888888888888888 0.888888888888889 0.05555555555555556 0.05555555555555556 0.3333333333333333 0.3333333333333333 0.3333333333333333 0.3333333333333333 0.3333333333333333 0.3333333333333333 0.3333333333333333 0.3333333333333333 0.3333333333333333 0.3333333333333333 0.3333333333333333 0.3333333333333333 0.3333333333333333 0.3333333333333333 0.3333333333333333 0.006535947712418299 0.9869281045751632 0.006535947712418299 0.3333333333333333 0.3333333333333333 0.3333333333333333 0.888888888888889 0.05555555555555556 0.05555555555555556 0.888888888888889 0.05555555555555556 0.05555555555555556 0.3333333333333333 0.3333333333333333 0.3333333333333333 0.3333333333333333 0.3333333333333333 0.3333333333333333 0.9047619047619049 0.04761904761904762 0.04761904761904762 0.3333333333333333 0.3333333333333333 0.3333333333333333 0.3333333333333333 0.3333333333333333 0.3333333333333333</probabilities>
		</cpt>
		<cpt id="R2OL">
			<state id="Normal" />
			<state id="High" />
			<state id="Low" />
			<parents>GV OV WV</parents>
			<probabilities>0.9999807799496433 9.610025178265964e-06 9.610025178265964e-06 0.006289308176100628 0.9874213836477985 0.006289308176100628 0.9874213836477985 0.006289308176100628 0.006289308176100628 0.006289308176100628 0.9874213836477985 0.006289308176100628 0.05555555555555556 0.888888888888889 0.05555555555555556 0.05555555555555556 0.888888888888889 0.05555555555555556 0.006289308176100628 0.006289308176100628 0.9874213836477987 0.888888888888889 0.05555555555555556 0.05555555555555556 0.05555555555555555 0.05555555555555555 0.8888888888888888 0.9869281045751632 0.006535947712418299 0.006535947712418299 0.05555555555555556 0.888888888888889 0.05555555555555556 0.05555555555555555 0.05555555555555555 0.8888888888888888 0.888888888888889 0.05555555555555556 0.05555555555555556 0.3333333333333333 0.3333333333333333 0.3333333333333333 0.3333333333333333 0.3333333333333333 0.3333333333333333 0.3333333333333333 0.3333333333333333 0.3333333333333333 0.3333333333333333 0.3333333333333333 0.3333333333333333 0.3333333333333333 0.3333333333333333 0.3333333333333333 0.006535947712418299 0.9869281045751632 0.006535947712418299 0.3333333333333333 0.3333333333333333 0.3333333333333333 0.888888888888889 0.05555555555555556 0.05555555555555556 0.888888888888889 0.05555555555555556 0.05555555555555556 0.3333333333333333 0.3333333333333333 0.3333333333333333 0.3333333333333333 0.3333333333333333 0.3333333333333333 0.04761904761904762 0.04761904761904762 0.9047619047619047 0.3333333333333333 0.3333333333333333 0.3333333333333333 0.3333333333333333 0.3333333333333333 0.3333333333333333</probabilities>
		</cpt>
		<cpt id="VP">
			<state id="Normal" />
			<state id="High" />
			<state id="Low" />
			<parents>GV OV WV</parents>
			<probabilities>0.9949643468065885 0.003267408560610428 0.001768244632800938 0.006289308176100628 0.9874213836477985 0.006289308176100628 0.9874213836477985 0.006289308176100628 0.006289308176100628 0.006289308176100628 0.9874213836477985 0.006289308176100628 0.05555555555555556 0.888888888888889 0.05555555555555556 0.05555555555555556 0.888888888888889 0.05555555555555556 0.9874213836477985 0.006289308176100628 0.006289308176100628 0.05555555555555556 0.888888888888889 0.05555555555555556 0.888888888888889 0.05555555555555556 0.05555555555555556 0.006535947712418299 0.9869281045751632 0.006535947712418299 0.05555555555555556 0.888888888888889 0.05555555555555556 0.888888888888889 0.05555555555555556 0.05555555555555556 0.05555555555555556 0.888888888888889 0.05555555555555556 0.3333333333333333 0.3333333333333333 0.3333333333333333 0.3333333333333333 0.3333333333333333 0.3333333333333333 0.3333333333333333 0.3333333333333333 0.3333333333333333 0.3333333333333333 0.3333333333333333 0.3333333333333333 0.3333333333333333 0.3333333333333333 0.3333333333333333 0.0065359477124183 0.0065359477124183 0.9869281045751634 0.3333333333333333 0.3333333333333333 0.3333333333333333 0.888888888888889 0.05555555555555556 0.05555555555555556 0.05555555555555555 0.05555555555555555 0.8888888888888888 0.3333333333333333 0.3333333333333333 0.3333333333333333 0.3333333333333333 0.3333333333333333 0.3333333333333333 0.04761904761904762 0.04761904761904762 0.9047619047619047 0.3333333333333333 0.3333333333333333 0.3333333333333333 0.3333333333333333 0.3333333333333333 0.3333333333333333</probabilities>
		</cpt>
		<cpt id="GVO">
			<state id="Normal" />
			<state id="High" />
			<state id="Low" />
			<parents>GV OV WV</parents>
			<probabilities>0.9985104460973686 9.610025178265964e-06 0.001479943877452959 0.006289308176100628 0.9874213836477985 0.006289308176100628 0.006289308176100628 0.006289308176100628 0.9874213836477987 0.006289308176100628 0.9874213836477985 0.006289308176100628 0.05555555555555556 0.888888888888889 0.05555555555555556 0.888888888888889 0.05555555555555556 0.05555555555555556 0.006289308176100628 0.006289308176100628 0.9874213836477987 0.888888888888889 0.05555555555555556 0.05555555555555556 0.05555555555555555 0.05555555555555555 0.8888888888888888 0.006535947712418299 0.9869281045751632 0.006535947712418299 0.05555555555555556 0.888888888888889 0.05555555555555556 0.05555555555555556 0.888888888888889 0.05555555555555556 0.05555555555555556 0.888888888888889 0.05555555555555556 0.3333333333333333 0.3333333333333333 0.3333333333333333 0.3333333333333333 0.3333333333333333 0.3333333333333333 0.3333333333333333 0.3333333333333333 0.3333333333333333 0.3333333333333333 0.3333333333333333 0.3333333333333333 0.3333333333333333 0.3333333333333333 0.3333333333333333 0.006535947712418299 0.9869281045751632 0.006535947712418299 0.3333333333333333 0.3333333333333333 0.3333333333333333 0.888888888888889 0.05555555555555556 0.05555555555555556 0.05555555555555556 0.888888888888889 0.05555555555555556 0.3333333333333333 0.3333333333333333 0.3333333333333333 0.3333333333333333 0.3333333333333333 0.3333333333333333 0.04761904761904762 0.9047619047619049 0.04761904761904762 0.3333333333333333 0.3333333333333333 0.3333333333333333 0.3333333333333333 0.3333333333333333 0.3333333333333333</probabilities>
		</cpt>
		<cpt id="OVO">
			<state id="Normal" />
			<state id="High" />
			<state id="Low" />
			<parents>GV OV WV</parents>
			<probabilities>0.9980779949643467 0.001912395010474927 9.610025178265964e-06 0.006289308176100628 0.9874213836477985 0.006289308176100628 0.006289308176100628 0.006289308176100628 0.9874213836477987 0.006289308176100628 0.9874213836477985 0.006289308176100628 0.05555555555555556 0.888888888888889 0.05555555555555556 0.888888888888889 0.05555555555555556 0.05555555555555556 0.006289308176100628 0.9874213836477985 0.006289308176100628 0.05555555555555556 0.888888888888889 0.05555555555555556 0.888888888888889 0.05555555555555556 0.05555555555555556 0.0065359477124183 0.0065359477124183 0.9869281045751634 0.05555555555555555 0.05555555555555555 0.8888888888888888 0.05555555555555555 0.05555555555555555 0.8888888888888888 0.05555555555555556 0.888888888888889 0.05555555555555556 0.3333333333333333 0.3333333333333333 0.3333333333333333 0.3333333333333333 0.3333333333333333 0.3333333333333333 0.3333333333333333 0.3333333333333333 0.3333333333333333 0.3333333333333333 0.3333333333333333 0.3333333333333333 0.3333333333333333 0.3333333333333333 0.3333333333333333 0.006535947712418299 0.9869281045751632 0.006535947712418299 0.3333333333333333 0.3333333333333333 0.3333333333333333 0.05555555555555555 0.05555555555555555 0.8888888888888888 0.05555555555555556 0.888888888888889 0.05555555555555556 0.3333333333333333 0.3333333333333333 0.3333333333333333 0.3333333333333333 0.3333333333333333 0.3333333333333333 0.04761904761904762 0.9047619047619049 0.04761904761904762 0.3333333333333333 0.3333333333333333 0.3333333333333333 0.3333333333333333 0.3333333333333333 0.3333333333333333</probabilities>
		</cpt>
		<cpt id="WVO">
			<state id="Normal" />
			<state id="High" />
			<state id="Low" />
			<parents>GV OV WV</parents>
			<probabilities>0.9980491648888119 0.001797074708335736 0.0001537604028522554 0.006289308176100628 0.9874213836477985 0.006289308176100628 0.006289308176100628 0.9874213836477985 0.006289308176100628 0.006289308176100628 0.006289308176100628 0.9874213836477987 0.888888888888889 0.05555555555555556 0.05555555555555556 0.888888888888889 0.05555555555555556 0.05555555555555556 0.9874213836477985 0.006289308176100628 0.006289308176100628 0.05555555555555556 0.888888888888889 0.05555555555555556 0.05555555555555556 0.888888888888889 0.05555555555555556 0.0065359477124183 0.0065359477124183 0.9869281045751634 0.05555555555555556 0.888888888888889 0.05555555555555556 0.05555555555555556 0.888888888888889 0.05555555555555556 0.888888888888889 0.05555555555555556 0.05555555555555556 0.3333333333333333 0.3333333333333333 0.3333333333333333 0.3333333333333333 0.3333333333333333 0.3333333333333333 0.3333333333333333 0.3333333333333333 0.3333333333333333 0.3333333333333333 0.3333333333333333 0.3333333333333333 0.3333333333333333 0.3333333333333333 0.3333333333333333 0.006535947712418299 0.9869281045751632 0.006535947712418299 0.3333333333333333 0.3333333333333333 0.3333333333333333 0.05555555555555556 0.888888888888889 0.05555555555555556 0.05555555555555556 0.888888888888889 0.05555555555555556 0.3333333333333333 0.3333333333333333 0.3333333333333333 0.3333333333333333 0.3333333333333333 0.3333333333333333 0.04761904761904762 0.9047619047619049 0.04761904761904762 0.3333333333333333 0.3333333333333333 0.3333333333333333 0.3333333333333333 0.3333333333333333 0.3333333333333333</probabilities>
		</cpt>
		<cpt id="GOR">
			<state id="Normal" />
			<state id="High" />
			<state id="Low" />
			<parents>GV OV WV</parents>
			<probabilities>0.9948201964289145 0.003267408560610428 0.001912395010474927 0.006289308176100628 0.9874213836477985 0.006289308176100628 0.006289308176100628 0.006289308176100628 0.9874213836477987 0.006289308176100628 0.9874213836477985 0.006289308176100628 0.05555555555555556 0.888888888888889 0.05555555555555556 0.05555555555555556 0.888888888888889 0.05555555555555556 0.006289308176100628 0.006289308176100628 0.9874213836477987 0.888888888888889 0.05555555555555556 0.05555555555555556 0.05555555555555555 0.05555555555555555 0.8888888888888888 0.0065359477124183 0.0065359477124183 0.9869281045751634 0.05555555555555555 0.05555555555555555 0.8888888888888888 0.05555555555555555 0.05555555555555555 0.8888888888888888 0.05555555555555555 0.05555555555555555 0.8888888888888888 0.3333333333333333 0.3333333333333333 0.3333333333333333 0.3333333333333333 0.3333333333333333 0.3333333333333333 0.3333333333333333 0.3333333333333333 0.3333333333333333 0.3333333333333333 0.3333333333333333 0.3333333333333333 0.3333333333333333 0.3333333333333333 0.3333333333333333 0.006535947712418299 0.9869281045751632 0.006535947712418299 0.3333333333333333 0.3333333333333333 0.3333333333333333 0.888888888888889 0.05555555555555556 0.05555555555555556 0.05555555555555556 0.888888888888889 0.05555555555555556 0.3333333333333333 0.3333333333333333 0.3333333333333333 0.3333333333333333 0.3333333333333333 0.3333333333333333 0.04761904761904762 0.9047619047619049 0.04761904761904762 0.3333333333333333 0.3333333333333333 0.3333333333333333 0.3333333333333333 0.3333333333333333 0.3333333333333333</probabilities>
		</cpt>
		<cpt id="OOR">
			<state id="Normal" />
			<state id="High" />
			<state id="Low" />
			<parents>GV OV WV</parents>
			<probabilities>0.9934940129543138 0.004737742412885121 0.001768244632800938 0.006289308176100628 0.9874213836477985 0.006289308176100628 0.006289308176100628 0.006289308176100628 0.9874213836477987 0.006289308176100628 0.006289308176100628 0.9874213836477987 0.05555555555555555 0.05555555555555555 0.8888888888888888 0.05555555555555555 0.05555555555555555 0.8888888888888888 0.006289308176100628 0.9874213836477985 0.006289308176100628 0.05555555555555556 0.888888888888889 0.05555555555555556 0.888888888888889 0.05555555555555556 0.05555555555555556 0.0065359477124183 0.0065359477124183 0.9869281045751634 0.05555555555555555 0.05555555555555555 0.8888888888888888 0.05555555555555555 0.05555555555555555 0.8888888888888888 0.05555555555555555 0.05555555555555555 0.8888888888888888 0.3333333333333333 0.3333333333333333 0.3333333333333333 0.3333333333333333 0.3333333333333333 0.3333333333333333 0.3333333333333333 0.3333333333333333 0.3333333333333333 0.3333333333333333 0.3333333333333333 0.3333333333333333 0.3333333333333333 0.3333333333333333 0.3333333333333333 0.006535947712418299 0.9869281045751632 0.006535947712418299 0.3333333333333333 0.3333333333333333 0.3333333333333333 0.05555555555555555 0.05555555555555555 0.8888888888888888 0.05555555555555555 0.05555555555555555 0.8888888888888888 0.3333333333333333 0.3333333333333333 0.3333333333333333 0.3333333333333333 0.3333333333333333 0.3333333333333333 0.04761904761904762 0.9047619047619049 0.04761904761904762 0.3333333333333333 0.3333333333333333 0.3333333333333333 0.3333333333333333 0.3333333333333333 0.3333333333333333</probabilities>
		</cpt>
		<cpt id="WOR">
			<state id="Normal" />
			<state id="High" />
			<state id="Low" />
			<parents>GV OV WV</parents>
			<probabilities>0.9933498625766398 0.004881892790559111 0.001768244632800938 0.006289308176100628 0.006289308176100628 0.9874213836477987 0.006289308176100628 0.9874213836477985 0.006289308176100628 0.006289308176100628 0.006289308176100628 0.9874213836477987 0.05555555555555555 0.05555555555555555 0.8888888888888888 0.05555555555555556 0.888888888888889 0.05555555555555556 0.9874213836477985 0.006289308176100628 0.006289308176100628 0.05555555555555555 0.05555555555555555 0.8888888888888888 0.05555555555555556 0.888888888888889 0.05555555555555556 0.0065359477124183 0.0065359477124183 0.9869281045751634 0.05555555555555555 0.05555555555555555 0.8888888888888888 0.05555555555555556 0.888888888888889 0.05555555555555556 0.888888888888889 0.05555555555555556 0.05555555555555556 0.3333333333333333 0.3333333333333333 0.3333333333333333 0.3333333333333333 0.3333333333333333 0.3333333333333333 0.3333333333333333 0.3333333333333333 0.3333333333333333 0.3333333333333333 0.3333333333333333 0.3333333333333333 0.3333333333333333 0.3333333333333333 0.3333333333333333 0.006535947712418299 0.9869281045751632 0.006535947712418299 0.3333333333333333 0.3333333333333333 0.3333333333333333 0.05555555555555556 0.888888888888889 0.05555555555555556 0.05555555555555556 0.888888888888889 0.05555555555555556 0.3333333333333333 0.3333333333333333 0.3333333333333333 0.3333333333333333 0.3333333333333333 0.3333333333333333 0.04761904761904762 0.9047619047619049 0.04761904761904762 0.3333333333333333 0.3333333333333333 0.3333333333333333 0.3333333333333333 0.3333333333333333 0.3333333333333333</probabilities>
		</cpt>
		<cpt id="Copy_of_GV">
			<state id="Normal" />
			<state id="Blockage" />
			<state id="Leak" />
			<probabilities>0.9962429257621152 0.001864269748418699 0.001892804489465924</probabilities>
		</cpt>
		<cpt id="Copy_of_OV">
			<state id="Normal" />
			<state id="Blockage" />
			<state id="Leak" />
			<probabilities>0.9959861130926901 0.002064012935749274 0.001949873971560374</probabilities>
		</cpt>
		<cpt id="Copy_of_WV">
			<state id="Normal" />
			<state id="Blockage" />
			<state id="Leak" />
			<probabilities>0.9960146478337374 0.001921339230513149 0.002064012935749274</probabilities>
		</cpt>
		<cpt id="Copy_of_WL">
			<state id="Normal" />
			<state id="High" />
			<state id="Low" />
			<parents>Copy_of_GV Copy_of_OV Copy_of_WV</parents>
			<probabilities>0.9999807799496433 9.610025178265964e-06 9.610025178265964e-06 0.006289308176100628 0.9874213836477985 0.006289308176100628 0.006289308176100628 0.006289308176100628 0.9874213836477987 0.9874213836477985 0.006289308176100628 0.006289308176100628 0.05555555555555556 0.888888888888889 0.05555555555555556 0.05555555555555555 0.05555555555555555 0.8888888888888888 0.9874213836477985 0.006289308176100628 0.006289308176100628 0.05555555555555556 0.888888888888889 0.05555555555555556 0.05555555555555555 0.05555555555555555 0.8888888888888888 0.9869281045751632 0.006535947712418299 0.006535947712418299 0.05555555555555556 0.888888888888889 0.05555555555555556 0.05555555555555555 0.05555555555555555 0.8888888888888888 0.888888888888889 0.05555555555555556 0.05555555555555556 0.3333333333333333 0.3333333333333333 0.3333333333333333 0.3333333333333333 0.3333333333333333 0.3333333333333333 0.3333333333333333 0.3333333333333333 0.3333333333333333 0.3333333333333333 0.3333333333333333 0.3333333333333333 0.3333333333333333 0.3333333333333333 0.3333333333333333 0.9869281045751632 0.006535947712418299 0.006535947712418299 0.3333333333333333 0.3333333333333333 0.3333333333333333 0.05555555555555555 0.05555555555555555 0.8888888888888888 0.888888888888889 0.05555555555555556 0.05555555555555556 0.3333333333333333 0.3333333333333333 0.3333333333333333 0.3333333333333333 0.3333333333333333 0.3333333333333333 0.9047619047619049 0.04761904761904762 0.04761904761904762 0.3333333333333333 0.3333333333333333 0.3333333333333333 0.3333333333333333 0.3333333333333333 0.3333333333333333</probabilities>
		</cpt>
		<cpt id="Copy_of_R1OL">
			<state id="Normal" />
			<state id="High" />
			<state id="Low" />
			<parents>Copy_of_GV Copy_of_OV Copy_of_WV</parents>
			<probabilities>0.9999807799496433 9.610025178265964e-06 9.610025178265964e-06 0.006289308176100628 0.9874213836477985 0.006289308176100628 0.006289308176100628 0.006289308176100628 0.9874213836477987 0.006289308176100628 0.9874213836477985 0.006289308176100628 0.05555555555555556 0.888888888888889 0.05555555555555556 0.888888888888889 0.05555555555555556 0.05555555555555556 0.9874213836477985 0.006289308176100628 0.006289308176100628 0.05555555555555556 0.888888888888889 0.05555555555555556 0.05555555555555555 0.05555555555555555 0.8888888888888888 0.9869281045751632 0.006535947712418299 0.006535947712418299 0.888888888888889 0.05555555555555556 0.05555555555555556 0.05555555555555555 0.05555555555555555 0.8888888888888888 0.888888888888889 0.05555555555555556 0.05555555555555556 0.3333333333333333 0.3333333333333333 0.3333333333333333 0.3333333333333333 0.3333333333333333 0.3333333333333333 0.3333333333333333 0.3333333333333333 0.3333333333333333 0.3333333333333333 0.3333333333333333 0.3333333333333333 0.3333333333333333 0.3333333333333333 0.3333333333333333 0.006535947712418299 0.9869281045751632 0.006535947712418299 0.3333333333333333 0.3333333333333333 0.3333333333333333 0.888888888888889 0.05555555555555556 0.05555555555555556 0.888888888888889 0.05555555555555556 0.05555555555555556 0.3333333333333333 0.3333333333333333 0.3333333333333333 0.3333333333333333 0.3333333333333333 0.3333333333333333 0.9047619047619049 0.04761904761904762 0.04761904761904762 0.3333333333333333 0.3333333333333333 0.3333333333333333 0.3333333333333333 0.3333333333333333 0.3333333333333333</probabilities>
		</cpt>
		<cpt id="Copy_of_R2OL">
			<state id="Normal" />
			<state id="High" />
			<state id="Low" />
			<parents>Copy_of_GV Copy_of_OV Copy_of_WV</parents>
			<probabilities>0.9999807799496433 9.610025178265964e-06 9.610025178265964e-06 0.006289308176100628 0.9874213836477985 0.006289308176100628 0.9874213836477985 0.006289308176100628 0.006289308176100628 0.006289308176100628 0.9874213836477985 0.006289308176100628 0.05555555555555556 0.888888888888889 0.05555555555555556 0.05555555555555556 0.888888888888889 0.05555555555555556 0.006289308176100628 0.006289308176100628 0.9874213836477987 0.888888888888889 0.05555555555555556 0.05555555555555556 0.05555555555555555 0.05555555555555555 0.8888888888888888 0.9869281045751632 0.006535947712418299 0.006535947712418299 0.05555555555555556 0.888888888888889 0.05555555555555556 0.05555555555555555 0.05555555555555555 0.8888888888888888 0.888888888888889 0.05555555555555556 0.05555555555555556 0.3333333333333333 0.3333333333333333 0.3333333333333333 0.3333333333333333 0.3333333333333333 0.3333333333333333 0.3333333333333333 0.3333333333333333 0.3333333333333333 0.3333333333333333 0.3333333333333333 0.3333333333333333 0.3333333333333333 0.3333333333333333 0.3333333333333333 0.006535947712418299 0.9869281045751632 0.006535947712418299 0.3333333333333333 0.3333333333333333 0.3333333333333333 0.888888888888889 0.05555555555555556 0.05555555555555556 0.888888888888889 0.05555555555555556 0.05555555555555556 0.3333333333333333 0.3333333333333333 0.3333333333333333 0.3333333333333333 0.3333333333333333 0.3333333333333333 0.04761904761904762 0.04761904761904762 0.9047619047619047 0.3333333333333333 0.3333333333333333 0.3333333333333333 0.3333333333333333 0.3333333333333333 0.3333333333333333</probabilities>
		</cpt>
		<cpt id="Copy_of_VP">
			<state id="Normal" />
			<state id="High" />
			<state id="Low" />
			<parents>Copy_of_GV Copy_of_OV Copy_of_WV</parents>
			<probabilities>0.9949643468065885 0.003267408560610428 0.001768244632800938 0.006289308176100628 0.9874213836477985 0.006289308176100628 0.9874213836477985 0.006289308176100628 0.006289308176100628 0.006289308176100628 0.9874213836477985 0.006289308176100628 0.05555555555555556 0.888888888888889 0.05555555555555556 0.05555555555555556 0.888888888888889 0.05555555555555556 0.9874213836477985 0.006289308176100628 0.006289308176100628 0.05555555555555556 0.888888888888889 0.05555555555555556 0.888888888888889 0.05555555555555556 0.05555555555555556 0.006535947712418299 0.9869281045751632 0.006535947712418299 0.05555555555555556 0.888888888888889 0.05555555555555556 0.888888888888889 0.05555555555555556 0.05555555555555556 0.05555555555555556 0.888888888888889 0.05555555555555556 0.3333333333333333 0.3333333333333333 0.3333333333333333 0.3333333333333333 0.3333333333333333 0.3333333333333333 0.3333333333333333 0.3333333333333333 0.3333333333333333 0.3333333333333333 0.3333333333333333 0.3333333333333333 0.3333333333333333 0.3333333333333333 0.3333333333333333 0.0065359477124183 0.0065359477124183 0.9869281045751634 0.3333333333333333 0.3333333333333333 0.3333333333333333 0.888888888888889 0.05555555555555556 0.05555555555555556 0.05555555555555555 0.05555555555555555 0.8888888888888888 0.3333333333333333 0.3333333333333333 0.3333333333333333 0.3333333333333333 0.3333333333333333 0.3333333333333333 0.04761904761904762 0.04761904761904762 0.9047619047619047 0.3333333333333333 0.3333333333333333 0.3333333333333333 0.3333333333333333 0.3333333333333333 0.3333333333333333</probabilities>
		</cpt>
		<cpt id="Copy_of_GVO">
			<state id="Normal" />
			<state id="High" />
			<state id="Low" />
			<parents>Copy_of_GV Copy_of_OV Copy_of_WV</parents>
			<probabilities>0.9985104460973686 9.610025178265964e-06 0.001479943877452959 0.006289308176100628 0.9874213836477985 0.006289308176100628 0.006289308176100628 0.006289308176100628 0.9874213836477987 0.006289308176100628 0.9874213836477985 0.006289308176100628 0.05555555555555556 0.888888888888889 0.05555555555555556 0.888888888888889 0.05555555555555556 0.05555555555555556 0.006289308176100628 0.006289308176100628 0.9874213836477987 0.888888888888889 0.05555555555555556 0.05555555555555556 0.05555555555555555 0.05555555555555555 0.8888888888888888 0.006535947712418299 0.9869281045751632 0.006535947712418299 0.05555555555555556 0.888888888888889 0.05555555555555556 0.05555555555555556 0.888888888888889 0.05555555555555556 0.05555555555555556 0.888888888888889 0.05555555555555556 0.3333333333333333 0.3333333333333333 0.3333333333333333 0.3333333333333333 0.3333333333333333 0.3333333333333333 0.3333333333333333 0.3333333333333333 0.3333333333333333 0.3333333333333333 0.3333333333333333 0.3333333333333333 0.3333333333333333 0.3333333333333333 0.3333333333333333 0.006535947712418299 0.9869281045751632 0.006535947712418299 0.3333333333333333 0.3333333333333333 0.3333333333333333 0.888888888888889 0.05555555555555556 0.05555555555555556 0.05555555555555556 0.888888888888889 0.05555555555555556 0.3333333333333333 0.3333333333333333 0.3333333333333333 0.3333333333333333 0.3333333333333333 0.3333333333333333 0.04761904761904762 0.9047619047619049 0.04761904761904762 0.3333333333333333 0.3333333333333333 0.3333333333333333 0.3333333333333333 0.3333333333333333 0.3333333333333333</probabilities>
		</cpt>
		<cpt id="Copy_of_OVO">
			<state id="Normal" />
			<state id="High" />
			<state id="Low" />
			<parents>Copy_of_GV Copy_of_OV Copy_of_WV</parents>
			<probabilities>0.9980779949643467 0.001912395010474927 9.610025178265964e-06 0.006289308176100628 0.9874213836477985 0.006289308176100628 0.006289308176100628 0.006289308176100628 0.9874213836477987 0.006289308176100628 0.9874213836477985 0.006289308176100628 0.05555555555555556 0.888888888888889 0.05555555555555556 0.888888888888889 0.05555555555555556 0.05555555555555556 0.006289308176100628 0.9874213836477985 0.006289308176100628 0.05555555555555556 0.888888888888889 0.05555555555555556 0.888888888888889 0.05555555555555556 0.05555555555555556 0.0065359477124183 0.0065359477124183 0.9869281045751634 0.05555555555555555 0.05555555555555555 0.8888888888888888 0.05555555555555555 0.05555555555555555 0.8888888888888888 0.05555555555555556 0.888888888888889 0.05555555555555556 0.3333333333333333 0.3333333333333333 0.3333333333333333 0.3333333333333333 0.3333333333333333 0.3333333333333333 0.3333333333333333 0.3333333333333333 0.3333333333333333 0.3333333333333333 0.3333333333333333 0.3333333333333333 0.3333333333333333 0.3333333333333333 0.3333333333333333 0.006535947712418299 0.9869281045751632 0.006535947712418299 0.3333333333333333 0.3333333333333333 0.3333333333333333 0.05555555555555555 0.05555555555555555 0.8888888888888888 0.05555555555555556 0.888888888888889 0.05555555555555556 0.3333333333333333 0.3333333333333333 0.3333333333333333 0.3333333333333333 0.3333333333333333 0.3333333333333333 0.04761904761904762 0.9047619047619049 0.04761904761904762 0.3333333333333333 0.3333333333333333 0.3333333333333333 0.3333333333333333 0.3333333333333333 0.3333333333333333</probabilities>
		</cpt>
		<cpt id="Copy_of_WVO">
			<state id="Normal" />
			<state id="High" />
			<state id="Low" />
			<parents>Copy_of_GV Copy_of_OV Copy_of_WV</parents>
			<probabilities>0.9980491648888119 0.001797074708335736 0.0001537604028522554 0.006289308176100628 0.9874213836477985 0.006289308176100628 0.006289308176100628 0.9874213836477985 0.006289308176100628 0.006289308176100628 0.006289308176100628 0.9874213836477987 0.888888888888889 0.05555555555555556 0.05555555555555556 0.888888888888889 0.05555555555555556 0.05555555555555556 0.9874213836477985 0.006289308176100628 0.006289308176100628 0.05555555555555556 0.888888888888889 0.05555555555555556 0.05555555555555556 0.888888888888889 0.05555555555555556 0.0065359477124183 0.0065359477124183 0.9869281045751634 0.05555555555555556 0.888888888888889 0.05555555555555556 0.05555555555555556 0.888888888888889 0.05555555555555556 0.888888888888889 0.05555555555555556 0.05555555555555556 0.3333333333333333 0.3333333333333333 0.3333333333333333 0.3333333333333333 0.3333333333333333 0.3333333333333333 0.3333333333333333 0.3333333333333333 0.3333333333333333 0.3333333333333333 0.3333333333333333 0.3333333333333333 0.3333333333333333 0.3333333333333333 0.3333333333333333 0.006535947712418299 0.9869281045751632 0.006535947712418299 0.3333333333333333 0.3333333333333333 0.3333333333333333 0.05555555555555556 0.888888888888889 0.05555555555555556 0.05555555555555556 0.888888888888889 0.05555555555555556 0.3333333333333333 0.3333333333333333 0.3333333333333333 0.3333333333333333 0.3333333333333333 0.3333333333333333 0.04761904761904762 0.9047619047619049 0.04761904761904762 0.3333333333333333 0.3333333333333333 0.3333333333333333 0.3333333333333333 0.3333333333333333 0.3333333333333333</probabilities>
		</cpt>
		<cpt id="Copy_of_GOR">
			<state id="Normal" />
			<state id="High" />
			<state id="Low" />
			<parents>Copy_of_GV Copy_of_OV Copy_of_WV</parents>
			<probabilities>0.9948201964289145 0.003267408560610428 0.001912395010474927 0.006289308176100628 0.9874213836477985 0.006289308176100628 0.006289308176100628 0.006289308176100628 0.9874213836477987 0.006289308176100628 0.9874213836477985 0.006289308176100628 0.05555555555555556 0.888888888888889 0.05555555555555556 0.05555555555555556 0.888888888888889 0.05555555555555556 0.006289308176100628 0.006289308176100628 0.9874213836477987 0.888888888888889 0.05555555555555556 0.05555555555555556 0.05555555555555555 0.05555555555555555 0.8888888888888888 0.0065359477124183 0.0065359477124183 0.9869281045751634 0.05555555555555555 0.05555555555555555 0.8888888888888888 0.05555555555555555 0.05555555555555555 0.8888888888888888 0.05555555555555555 0.05555555555555555 0.8888888888888888 0.3333333333333333 0.3333333333333333 0.3333333333333333 0.3333333333333333 0.3333333333333333 0.3333333333333333 0.3333333333333333 0.3333333333333333 0.3333333333333333 0.3333333333333333 0.3333333333333333 0.3333333333333333 0.3333333333333333 0.3333333333333333 0.3333333333333333 0.006535947712418299 0.9869281045751632 0.006535947712418299 0.3333333333333333 0.3333333333333333 0.3333333333333333 0.888888888888889 0.05555555555555556 0.05555555555555556 0.05555555555555556 0.888888888888889 0.05555555555555556 0.3333333333333333 0.3333333333333333 0.3333333333333333 0.3333333333333333 0.3333333333333333 0.3333333333333333 0.04761904761904762 0.9047619047619049 0.04761904761904762 0.3333333333333333 0.3333333333333333 0.3333333333333333 0.3333333333333333 0.3333333333333333 0.3333333333333333</probabilities>
		</cpt>
		<cpt id="Copy_of_OOR">
			<state id="Normal" />
			<state id="High" />
			<state id="Low" />
			<parents>Copy_of_GV Copy_of_OV Copy_of_WV</parents>
			<probabilities>0.9934940129543138 0.004737742412885121 0.001768244632800938 0.006289308176100628 0.9874213836477985 0.006289308176100628 0.006289308176100628 0.006289308176100628 0.9874213836477987 0.006289308176100628 0.006289308176100628 0.9874213836477987 0.05555555555555555 0.05555555555555555 0.8888888888888888 0.05555555555555555 0.05555555555555555 0.8888888888888888 0.006289308176100628 0.9874213836477985 0.006289308176100628 0.05555555555555556 0.888888888888889 0.05555555555555556 0.888888888888889 0.05555555555555556 0.05555555555555556 0.0065359477124183 0.0065359477124183 0.9869281045751634 0.05555555555555555 0.05555555555555555 0.8888888888888888 0.05555555555555555 0.05555555555555555 0.8888888888888888 0.05555555555555555 0.05555555555555555 0.8888888888888888 0.3333333333333333 0.3333333333333333 0.3333333333333333 0.3333333333333333 0.3333333333333333 0.3333333333333333 0.3333333333333333 0.3333333333333333 0.3333333333333333 0.3333333333333333 0.3333333333333333 0.3333333333333333 0.3333333333333333 0.3333333333333333 0.3333333333333333 0.006535947712418299 0.9869281045751632 0.006535947712418299 0.3333333333333333 0.3333333333333333 0.3333333333333333 0.05555555555555555 0.05555555555555555 0.8888888888888888 0.05555555555555555 0.05555555555555555 0.8888888888888888 0.3333333333333333 0.3333333333333333 0.3333333333333333 0.3333333333333333 0.3333333333333333 0.3333333333333333 0.04761904761904762 0.9047619047619049 0.04761904761904762 0.3333333333333333 0.3333333333333333 0.3333333333333333 0.3333333333333333 0.3333333333333333 0.3333333333333333</probabilities>
		</cpt>
		<cpt id="Copy_of_WOR">
			<state id="Normal" />
			<state id="High" />
			<state id="Low" />
			<parents>Copy_of_GV Copy_of_OV Copy_of_WV</parents>
			<probabilities>0.9933498625766398 0.004881892790559111 0.001768244632800938 0.006289308176100628 0.006289308176100628 0.9874213836477987 0.006289308176100628 0.9874213836477985 0.006289308176100628 0.006289308176100628 0.006289308176100628 0.9874213836477987 0.05555555555555555 0.05555555555555555 0.8888888888888888 0.05555555555555556 0.888888888888889 0.05555555555555556 0.9874213836477985 0.006289308176100628 0.006289308176100628 0.05555555555555555 0.05555555555555555 0.8888888888888888 0.05555555555555556 0.888888888888889 0.05555555555555556 0.0065359477124183 0.0065359477124183 0.9869281045751634 0.05555555555555555 0.05555555555555555 0.8888888888888888 0.05555555555555556 0.888888888888889 0.05555555555555556 0.888888888888889 0.05555555555555556 0.05555555555555556 0.3333333333333333 0.3333333333333333 0.3333333333333333 0.3333333333333333 0.3333333333333333 0.3333333333333333 0.3333333333333333 0.3333333333333333 0.3333333333333333 0.3333333333333333 0.3333333333333333 0.3333333333333333 0.3333333333333333 0.3333333333333333 0.3333333333333333 0.006535947712418299 0.9869281045751632 0.006535947712418299 0.3333333333333333 0.3333333333333333 0.3333333333333333 0.05555555555555556 0.888888888888889 0.05555555555555556 0.05555555555555556 0.888888888888889 0.05555555555555556 0.3333333333333333 0.3333333333333333 0.3333333333333333 0.3333333333333333 0.3333333333333333 0.3333333333333333 0.04761904761904762 0.9047619047619049 0.04761904761904762 0.3333333333333333 0.3333333333333333 0.3333333333333333 0.3333333333333333 0.3333333333333333 0.3333333333333333</probabilities>
		</cpt>
		<cpt id="TOWF">
			<state id="Normal" />
			<state id="Abnormal" />
			<parents>WOR Copy_of_WOR</parents>
			<probabilities>0.99 0.01000000000000001 0.2 0.8 0.2 0.8 0.2 0.8 0.01 0.99 0.6 0.4000000000000001 0.2 0.8 0.6 0.4000000000000001 0.01 0.99</probabilities>
		</cpt>
		<cpt id="TOOF">
			<state id="Normal" />
			<state id="Abnormal" />
			<parents>OOR Copy_of_OOR</parents>
			<probabilities>0.99 0.01000000000000001 0.2 0.8 0.2 0.8 0.2 0.8 0.01 0.99 0.6 0.4000000000000001 0.2 0.8 0.6 0.4000000000000001 0.01 0.99</probabilities>
		</cpt>
		<cpt id="TOGF">
			<state id="Normal" />
			<state id="Abnormal" />
			<parents>GOR Copy_of_GOR</parents>
			<probabilities>0.99 0.01000000000000001 0.2 0.8 0.2 0.8 0.2 0.8 0.01 0.99 0.6 0.4000000000000001 0.2 0.8 0.6 0.4000000000000001 0.01 0.99</probabilities>
		</cpt>
		<cpt id="Copy_2_of_GV">
			<state id="Normal" />
			<state id="Blockage" />
			<state id="Leak" />
			<parents>GV</parents>
			<probabilities>0.9998737680000001 9.81538e-05 2.807819999994839e-05 0.39346934 0.60653066 0 0.39346934 0 0.60653066</probabilities>
		</cpt>
		<cpt id="Copy_2_of_OV">
			<state id="Normal" />
			<state id="Blockage" />
			<state id="Leak" />
			<parents>OV</parents>
			<probabilities>0.9998737680000001 9.81538e-05 2.807819999994839e-05 0.39346934 0.60653066 0 0.39346934 0 0.60653066</probabilities>
		</cpt>
		<cpt id="Copy_2_of_WV">
			<state id="Normal" />
			<state id="Blockage" />
			<state id="Leak" />
			<parents>WV</parents>
			<probabilities>0.9998737680000001 9.81538e-05 2.807819999994839e-05 0.39346934 0.60653066 0 0.39346934 0 0.60653066</probabilities>
		</cpt>
		<cpt id="Copy_2_of_WOR">
			<state id="Normal" />
			<state id="High" />
			<state id="Low" />
			<parents>Copy_2_of_GV Copy_2_of_OV Copy_2_of_WV</parents>
			<probabilities>0.9933498625766398 0.004881892790559111 0.001768244632800938 0.006289308176100628 0.006289308176100628 0.9874213836477987 0.006289308176100628 0.9874213836477985 0.006289308176100628 0.006289308176100628 0.006289308176100628 0.9874213836477987 0.05555555555555555 0.05555555555555555 0.8888888888888888 0.05555555555555556 0.888888888888889 0.05555555555555556 0.9874213836477985 0.006289308176100628 0.006289308176100628 0.05555555555555555 0.05555555555555555 0.8888888888888888 0.05555555555555556 0.888888888888889 0.05555555555555556 0.0065359477124183 0.0065359477124183 0.9869281045751634 0.05555555555555555 0.05555555555555555 0.8888888888888888 0.05555555555555556 0.888888888888889 0.05555555555555556 0.888888888888889 0.05555555555555556 0.05555555555555556 0.3333333333333333 0.3333333333333333 0.3333333333333333 0.3333333333333333 0.3333333333333333 0.3333333333333333 0.3333333333333333 0.3333333333333333 0.3333333333333333 0.3333333333333333 0.3333333333333333 0.3333333333333333 0.3333333333333333 0.3333333333333333 0.3333333333333333 0.006535947712418299 0.9869281045751632 0.006535947712418299 0.3333333333333333 0.3333333333333333 0.3333333333333333 0.05555555555555556 0.888888888888889 0.05555555555555556 0.05555555555555556 0.888888888888889 0.05555555555555556 0.3333333333333333 0.3333333333333333 0.3333333333333333 0.3333333333333333 0.3333333333333333 0.3333333333333333 0.04761904761904762 0.9047619047619049 0.04761904761904762 0.3333333333333333 0.3333333333333333 0.3333333333333333 0.3333333333333333 0.3333333333333333 0.3333333333333333</probabilities>
		</cpt>
		<cpt id="Copy_3_of_GV">
			<state id="Normal" />
			<state id="Blockage" />
			<state id="Leak" />
			<parents>Copy_of_GV</parents>
			<probabilities>0.9998737680000001 9.81538e-05 2.807819999994839e-05 0.39346934 0.60653066 0 0.39346934 0 0.60653066</probabilities>
		</cpt>
		<cpt id="Copy_3_of_OV">
			<state id="Normal" />
			<state id="Blockage" />
			<state id="Leak" />
			<parents>Copy_of_OV</parents>
			<probabilities>0.9998737680000001 9.81538e-05 2.807819999994839e-05 0.39346934 0.60653066 0 0.39346934 0 0.60653066</probabilities>
		</cpt>
		<cpt id="Copy_3_of_WV">
			<state id="Normal" />
			<state id="Blockage" />
			<state id="Leak" />
			<parents>Copy_of_WV</parents>
			<probabilities>0.9998737680000001 9.81538e-05 2.807819999994839e-05 0.39346934 0.60653066 0 0.39346934 0 0.60653066</probabilities>
		</cpt>
		<cpt id="Copy_3_of_WOR">
			<state id="Normal" />
			<state id="High" />
			<state id="Low" />
			<parents>Copy_3_of_GV Copy_3_of_OV Copy_3_of_WV</parents>
			<probabilities>0.9933498625766398 0.004881892790559111 0.001768244632800938 0.006289308176100628 0.006289308176100628 0.9874213836477987 0.006289308176100628 0.9874213836477985 0.006289308176100628 0.006289308176100628 0.006289308176100628 0.9874213836477987 0.05555555555555555 0.05555555555555555 0.8888888888888888 0.05555555555555556 0.888888888888889 0.05555555555555556 0.9874213836477985 0.006289308176100628 0.006289308176100628 0.05555555555555555 0.05555555555555555 0.8888888888888888 0.05555555555555556 0.888888888888889 0.05555555555555556 0.0065359477124183 0.0065359477124183 0.9869281045751634 0.05555555555555555 0.05555555555555555 0.8888888888888888 0.05555555555555556 0.888888888888889 0.05555555555555556 0.888888888888889 0.05555555555555556 0.05555555555555556 0.3333333333333333 0.3333333333333333 0.3333333333333333 0.3333333333333333 0.3333333333333333 0.3333333333333333 0.3333333333333333 0.3333333333333333 0.3333333333333333 0.3333333333333333 0.3333333333333333 0.3333333333333333 0.3333333333333333 0.3333333333333333 0.3333333333333333 0.006535947712418299 0.9869281045751632 0.006535947712418299 0.3333333333333333 0.3333333333333333 0.3333333333333333 0.05555555555555556 0.888888888888889 0.05555555555555556 0.05555555555555556 0.888888888888889 0.05555555555555556 0.3333333333333333 0.3333333333333333 0.3333333333333333 0.3333333333333333 0.3333333333333333 0.3333333333333333 0.04761904761904762 0.9047619047619049 0.04761904761904762 0.3333333333333333 0.3333333333333333 0.3333333333333333 0.3333333333333333 0.3333333333333333 0.3333333333333333</probabilities>
		</cpt>
		<cpt id="Copy_of_TOWF">
			<state id="Normal" />
			<state id="Abnormal" />
			<parents>Copy_2_of_WOR Copy_3_of_WOR</parents>
			<probabilities>0.99 0.01000000000000001 0.2 0.8 0.2 0.8 0.2 0.8 0.01 0.99 0.6 0.4000000000000001 0.2 0.8 0.6 0.4000000000000001 0.01 0.99</probabilities>
		</cpt>
		<cpt id="Copy_2_of_OOR">
			<state id="Normal" />
			<state id="High" />
			<state id="Low" />
			<parents>Copy_2_of_GV Copy_2_of_OV Copy_2_of_WV</parents>
			<probabilities>0.9934940129543138 0.004737742412885121 0.001768244632800938 0.006289308176100628 0.9874213836477985 0.006289308176100628 0.006289308176100628 0.006289308176100628 0.9874213836477987 0.006289308176100628 0.006289308176100628 0.9874213836477987 0.05555555555555555 0.05555555555555555 0.8888888888888888 0.05555555555555555 0.05555555555555555 0.8888888888888888 0.006289308176100628 0.9874213836477985 0.006289308176100628 0.05555555555555556 0.888888888888889 0.05555555555555556 0.888888888888889 0.05555555555555556 0.05555555555555556 0.0065359477124183 0.0065359477124183 0.9869281045751634 0.05555555555555555 0.05555555555555555 0.8888888888888888 0.05555555555555555 0.05555555555555555 0.8888888888888888 0.05555555555555555 0.05555555555555555 0.8888888888888888 0.3333333333333333 0.3333333333333333 0.3333333333333333 0.3333333333333333 0.3333333333333333 0.3333333333333333 0.3333333333333333 0.3333333333333333 0.3333333333333333 0.3333333333333333 0.3333333333333333 0.3333333333333333 0.3333333333333333 0.3333333333333333 0.3333333333333333 0.006535947712418299 0.9869281045751632 0.006535947712418299 0.3333333333333333 0.3333333333333333 0.3333333333333333 0.05555555555555555 0.05555555555555555 0.8888888888888888 0.05555555555555555 0.05555555555555555 0.8888888888888888 0.3333333333333333 0.3333333333333333 0.3333333333333333 0.3333333333333333 0.3333333333333333 0.3333333333333333 0.04761904761904762 0.9047619047619049 0.04761904761904762 0.3333333333333333 0.3333333333333333 0.3333333333333333 0.3333333333333333 0.3333333333333333 0.3333333333333333</probabilities>
		</cpt>
		<cpt id="Copy_3_of_OOR">
			<state id="Normal" />
			<state id="High" />
			<state id="Low" />
			<parents>Copy_3_of_GV Copy_3_of_OV Copy_3_of_WV</parents>
			<probabilities>0.9934940129543138 0.004737742412885121 0.001768244632800938 0.006289308176100628 0.9874213836477985 0.006289308176100628 0.006289308176100628 0.006289308176100628 0.9874213836477987 0.006289308176100628 0.006289308176100628 0.9874213836477987 0.05555555555555555 0.05555555555555555 0.8888888888888888 0.05555555555555555 0.05555555555555555 0.8888888888888888 0.006289308176100628 0.9874213836477985 0.006289308176100628 0.05555555555555556 0.888888888888889 0.05555555555555556 0.888888888888889 0.05555555555555556 0.05555555555555556 0.0065359477124183 0.0065359477124183 0.9869281045751634 0.05555555555555555 0.05555555555555555 0.8888888888888888 0.05555555555555555 0.05555555555555555 0.8888888888888888 0.05555555555555555 0.05555555555555555 0.8888888888888888 0.3333333333333333 0.3333333333333333 0.3333333333333333 0.3333333333333333 0.3333333333333333 0.3333333333333333 0.3333333333333333 0.3333333333333333 0.3333333333333333 0.3333333333333333 0.3333333333333333 0.3333333333333333 0.3333333333333333 0.3333333333333333 0.3333333333333333 0.006535947712418299 0.9869281045751632 0.006535947712418299 0.3333333333333333 0.3333333333333333 0.3333333333333333 0.05555555555555555 0.05555555555555555 0.8888888888888888 0.05555555555555555 0.05555555555555555 0.8888888888888888 0.3333333333333333 0.3333333333333333 0.3333333333333333 0.3333333333333333 0.3333333333333333 0.3333333333333333 0.04761904761904762 0.9047619047619049 0.04761904761904762 0.3333333333333333 0.3333333333333333 0.3333333333333333 0.3333333333333333 0.3333333333333333 0.3333333333333333</probabilities>
		</cpt>
		<cpt id="Copy_of_TOOF">
			<state id="Normal" />
			<state id="Abnormal" />
			<parents>Copy_2_of_OOR Copy_3_of_OOR</parents>
			<probabilities>0.99 0.01000000000000001 0.2 0.8 0.2 0.8 0.2 0.8 0.01 0.99 0.6 0.4000000000000001 0.2 0.8 0.6 0.4000000000000001 0.01 0.99</probabilities>
		</cpt>
		<cpt id="Copy_2_of_GOR">
			<state id="Normal" />
			<state id="High" />
			<state id="Low" />
			<parents>Copy_2_of_GV Copy_2_of_OV Copy_2_of_WV</parents>
			<probabilities>0.9948201964289145 0.003267408560610428 0.001912395010474927 0.006289308176100628 0.9874213836477985 0.006289308176100628 0.006289308176100628 0.006289308176100628 0.9874213836477987 0.006289308176100628 0.9874213836477985 0.006289308176100628 0.05555555555555556 0.888888888888889 0.05555555555555556 0.05555555555555556 0.888888888888889 0.05555555555555556 0.006289308176100628 0.006289308176100628 0.9874213836477987 0.888888888888889 0.05555555555555556 0.05555555555555556 0.05555555555555555 0.05555555555555555 0.8888888888888888 0.0065359477124183 0.0065359477124183 0.9869281045751634 0.05555555555555555 0.05555555555555555 0.8888888888888888 0.05555555555555555 0.05555555555555555 0.8888888888888888 0.05555555555555555 0.05555555555555555 0.8888888888888888 0.3333333333333333 0.3333333333333333 0.3333333333333333 0.3333333333333333 0.3333333333333333 0.3333333333333333 0.3333333333333333 0.3333333333333333 0.3333333333333333 0.3333333333333333 0.3333333333333333 0.3333333333333333 0.3333333333333333 0.3333333333333333 0.3333333333333333 0.006535947712418299 0.9869281045751632 0.006535947712418299 0.3333333333333333 0.3333333333333333 0.3333333333333333 0.888888888888889 0.05555555555555556 0.05555555555555556 0.05555555555555556 0.888888888888889 0.05555555555555556 0.3333333333333333 0.3333333333333333 0.3333333333333333 0.3333333333333333 0.3333333333333333 0.3333333333333333 0.04761904761904762 0.9047619047619049 0.04761904761904762 0.3333333333333333 0.3333333333333333 0.3333333333333333 0.3333333333333333 0.3333333333333333 0.3333333333333333</probabilities>
		</cpt>
		<cpt id="Copy_3_of_GOR">
			<state id="Normal" />
			<state id="High" />
			<state id="Low" />
			<parents>Copy_3_of_GV Copy_3_of_OV Copy_3_of_WV</parents>
			<probabilities>0.9948201964289145 0.003267408560610428 0.001912395010474927 0.006289308176100628 0.9874213836477985 0.006289308176100628 0.006289308176100628 0.006289308176100628 0.9874213836477987 0.006289308176100628 0.9874213836477985 0.006289308176100628 0.05555555555555556 0.888888888888889 0.05555555555555556 0.05555555555555556 0.888888888888889 0.05555555555555556 0.006289308176100628 0.006289308176100628 0.9874213836477987 0.888888888888889 0.05555555555555556 0.05555555555555556 0.05555555555555555 0.05555555555555555 0.8888888888888888 0.0065359477124183 0.0065359477124183 0.9869281045751634 0.05555555555555555 0.05555555555555555 0.8888888888888888 0.05555555555555555 0.05555555555555555 0.8888888888888888 0.05555555555555555 0.05555555555555555 0.8888888888888888 0.3333333333333333 0.3333333333333333 0.3333333333333333 0.3333333333333333 0.3333333333333333 0.3333333333333333 0.3333333333333333 0.3333333333333333 0.3333333333333333 0.3333333333333333 0.3333333333333333 0.3333333333333333 0.3333333333333333 0.3333333333333333 0.3333333333333333 0.006535947712418299 0.9869281045751632 0.006535947712418299 0.3333333333333333 0.3333333333333333 0.3333333333333333 0.888888888888889 0.05555555555555556 0.05555555555555556 0.05555555555555556 0.888888888888889 0.05555555555555556 0.3333333333333333 0.3333333333333333 0.3333333333333333 0.3333333333333333 0.3333333333333333 0.3333333333333333 0.04761904761904762 0.9047619047619049 0.04761904761904762 0.3333333333333333 0.3333333333333333 0.3333333333333333 0.3333333333333333 0.3333333333333333 0.3333333333333333</probabilities>
		</cpt>
		<cpt id="Copy_of_TOGF">
			<state id="Normal" />
			<state id="Abnormal" />
			<parents>Copy_2_of_GOR Copy_3_of_GOR</parents>
			<probabilities>0.99 0.01000000000000001 0.2 0.8 0.2 0.8 0.2 0.8 0.01 0.99 0.6 0.4000000000000001 0.2 0.8 0.6 0.4000000000000001 0.01 0.99</probabilities>
		</cpt>
		<cpt id="Copy_2_of_WL">
			<state id="Normal" />
			<state id="High" />
			<state id="Low" />
			<parents>Copy_2_of_GV Copy_2_of_OV Copy_2_of_WV</parents>
			<probabilities>0.9999807799496433 9.610025178265964e-06 9.610025178265964e-06 0.006289308176100628 0.9874213836477985 0.006289308176100628 0.006289308176100628 0.006289308176100628 0.9874213836477987 0.9874213836477985 0.006289308176100628 0.006289308176100628 0.05555555555555556 0.888888888888889 0.05555555555555556 0.05555555555555555 0.05555555555555555 0.8888888888888888 0.9874213836477985 0.006289308176100628 0.006289308176100628 0.05555555555555556 0.888888888888889 0.05555555555555556 0.05555555555555555 0.05555555555555555 0.8888888888888888 0.9869281045751632 0.006535947712418299 0.006535947712418299 0.05555555555555556 0.888888888888889 0.05555555555555556 0.05555555555555555 0.05555555555555555 0.8888888888888888 0.888888888888889 0.05555555555555556 0.05555555555555556 0.3333333333333333 0.3333333333333333 0.3333333333333333 0.3333333333333333 0.3333333333333333 0.3333333333333333 0.3333333333333333 0.3333333333333333 0.3333333333333333 0.3333333333333333 0.3333333333333333 0.3333333333333333 0.3333333333333333 0.3333333333333333 0.3333333333333333 0.9869281045751632 0.006535947712418299 0.006535947712418299 0.3333333333333333 0.3333333333333333 0.3333333333333333 0.05555555555555555 0.05555555555555555 0.8888888888888888 0.888888888888889 0.05555555555555556 0.05555555555555556 0.3333333333333333 0.3333333333333333 0.3333333333333333 0.3333333333333333 0.3333333333333333 0.3333333333333333 0.9047619047619049 0.04761904761904762 0.04761904761904762 0.3333333333333333 0.3333333333333333 0.3333333333333333 0.3333333333333333 0.3333333333333333 0.3333333333333333</probabilities>
		</cpt>
		<cpt id="Copy_2_of_R1OL">
			<state id="Normal" />
			<state id="High" />
			<state id="Low" />
			<parents>Copy_2_of_GV Copy_2_of_OV Copy_2_of_WV</parents>
			<probabilities>0.9999807799496433 9.610025178265964e-06 9.610025178265964e-06 0.006289308176100628 0.9874213836477985 0.006289308176100628 0.006289308176100628 0.006289308176100628 0.9874213836477987 0.006289308176100628 0.9874213836477985 0.006289308176100628 0.05555555555555556 0.888888888888889 0.05555555555555556 0.888888888888889 0.05555555555555556 0.05555555555555556 0.9874213836477985 0.006289308176100628 0.006289308176100628 0.05555555555555556 0.888888888888889 0.05555555555555556 0.05555555555555555 0.05555555555555555 0.8888888888888888 0.9869281045751632 0.006535947712418299 0.006535947712418299 0.888888888888889 0.05555555555555556 0.05555555555555556 0.05555555555555555 0.05555555555555555 0.8888888888888888 0.888888888888889 0.05555555555555556 0.05555555555555556 0.3333333333333333 0.3333333333333333 0.3333333333333333 0.3333333333333333 0.3333333333333333 0.3333333333333333 0.3333333333333333 0.3333333333333333 0.3333333333333333 0.3333333333333333 0.3333333333333333 0.3333333333333333 0.3333333333333333 0.3333333333333333 0.3333333333333333 0.006535947712418299 0.9869281045751632 0.006535947712418299 0.3333333333333333 0.3333333333333333 0.3333333333333333 0.888888888888889 0.05555555555555556 0.05555555555555556 0.888888888888889 0.05555555555555556 0.05555555555555556 0.3333333333333333 0.3333333333333333 0.3333333333333333 0.3333333333333333 0.3333333333333333 0.3333333333333333 0.9047619047619049 0.04761904761904762 0.04761904761904762 0.3333333333333333 0.3333333333333333 0.3333333333333333 0.3333333333333333 0.3333333333333333 0.3333333333333333</probabilities>
		</cpt>
		<cpt id="Copy_2_of_R2OL">
			<state id="Normal" />
			<state id="High" />
			<state id="Low" />
			<parents>Copy_2_of_GV Copy_2_of_OV Copy_2_of_WV</parents>
			<probabilities>0.9999807799496433 9.610025178265964e-06 9.610025178265964e-06 0.006289308176100628 0.9874213836477985 0.006289308176100628 0.9874213836477985 0.006289308176100628 0.006289308176100628 0.006289308176100628 0.9874213836477985 0.006289308176100628 0.05555555555555556 0.888888888888889 0.05555555555555556 0.05555555555555556 0.888888888888889 0.05555555555555556 0.006289308176100628 0.006289308176100628 0.9874213836477987 0.888888888888889 0.05555555555555556 0.05555555555555556 0.05555555555555555 0.05555555555555555 0.8888888888888888 0.9869281045751632 0.006535947712418299 0.006535947712418299 0.05555555555555556 0.888888888888889 0.05555555555555556 0.05555555555555555 0.05555555555555555 0.8888888888888888 0.888888888888889 0.05555555555555556 0.05555555555555556 0.3333333333333333 0.3333333333333333 0.3333333333333333 0.3333333333333333 0.3333333333333333 0.3333333333333333 0.3333333333333333 0.3333333333333333 0.3333333333333333 0.3333333333333333 0.3333333333333333 0.3333333333333333 0.3333333333333333 0.3333333333333333 0.3333333333333333 0.006535947712418299 0.9869281045751632 0.006535947712418299 0.3333333333333333 0.3333333333333333 0.3333333333333333 0.888888888888889 0.05555555555555556 0.05555555555555556 0.888888888888889 0.05555555555555556 0.05555555555555556 0.3333333333333333 0.3333333333333333 0.3333333333333333 0.3333333333333333 0.3333333333333333 0.3333333333333333 0.04761904761904762 0.04761904761904762 0.9047619047619047 0.3333333333333333 0.3333333333333333 0.3333333333333333 0.3333333333333333 0.3333333333333333 0.3333333333333333</probabilities>
		</cpt>
		<cpt id="Copy_2_of_VP">
			<state id="Normal" />
			<state id="High" />
			<state id="Low" />
			<parents>Copy_2_of_GV Copy_2_of_OV Copy_2_of_WV</parents>
			<probabilities>0.9949643468065885 0.003267408560610428 0.001768244632800938 0.006289308176100628 0.9874213836477985 0.006289308176100628 0.9874213836477985 0.006289308176100628 0.006289308176100628 0.006289308176100628 0.9874213836477985 0.006289308176100628 0.05555555555555556 0.888888888888889 0.05555555555555556 0.05555555555555556 0.888888888888889 0.05555555555555556 0.9874213836477985 0.006289308176100628 0.006289308176100628 0.05555555555555556 0.888888888888889 0.05555555555555556 0.888888888888889 0.05555555555555556 0.05555555555555556 0.006535947712418299 0.9869281045751632 0.006535947712418299 0.05555555555555556 0.888888888888889 0.05555555555555556 0.888888888888889 0.05555555555555556 0.05555555555555556 0.05555555555555556 0.888888888888889 0.05555555555555556 0.3333333333333333 0.3333333333333333 0.3333333333333333 0.3333333333333333 0.3333333333333333 0.3333333333333333 0.3333333333333333 0.3333333333333333 0.3333333333333333 0.3333333333333333 0.3333333333333333 0.3333333333333333 0.3333333333333333 0.3333333333333333 0.3333333333333333 0.0065359477124183 0.0065359477124183 0.9869281045751634 0.3333333333333333 0.3333333333333333 0.3333333333333333 0.888888888888889 0.05555555555555556 0.05555555555555556 0.05555555555555555 0.05555555555555555 0.8888888888888888 0.3333333333333333 0.3333333333333333 0.3333333333333333 0.3333333333333333 0.3333333333333333 0.3333333333333333 0.04761904761904762 0.04761904761904762 0.9047619047619047 0.3333333333333333 0.3333333333333333 0.3333333333333333 0.3333333333333333 0.3333333333333333 0.3333333333333333</probabilities>
		</cpt>
		<cpt id="Copy_2_of_GVO">
			<state id="Normal" />
			<state id="High" />
			<state id="Low" />
			<parents>Copy_2_of_GV Copy_2_of_OV Copy_2_of_WV</parents>
			<probabilities>0.9985104460973686 9.610025178265964e-06 0.001479943877452959 0.006289308176100628 0.9874213836477985 0.006289308176100628 0.006289308176100628 0.006289308176100628 0.9874213836477987 0.006289308176100628 0.9874213836477985 0.006289308176100628 0.05555555555555556 0.888888888888889 0.05555555555555556 0.888888888888889 0.05555555555555556 0.05555555555555556 0.006289308176100628 0.006289308176100628 0.9874213836477987 0.888888888888889 0.05555555555555556 0.05555555555555556 0.05555555555555555 0.05555555555555555 0.8888888888888888 0.006535947712418299 0.9869281045751632 0.006535947712418299 0.05555555555555556 0.888888888888889 0.05555555555555556 0.05555555555555556 0.888888888888889 0.05555555555555556 0.05555555555555556 0.888888888888889 0.05555555555555556 0.3333333333333333 0.3333333333333333 0.3333333333333333 0.3333333333333333 0.3333333333333333 0.3333333333333333 0.3333333333333333 0.3333333333333333 0.3333333333333333 0.3333333333333333 0.3333333333333333 0.3333333333333333 0.3333333333333333 0.3333333333333333 0.3333333333333333 0.006535947712418299 0.9869281045751632 0.006535947712418299 0.3333333333333333 0.3333333333333333 0.3333333333333333 0.888888888888889 0.05555555555555556 0.05555555555555556 0.05555555555555556 0.888888888888889 0.05555555555555556 0.3333333333333333 0.3333333333333333 0.3333333333333333 0.3333333333333333 0.3333333333333333 0.3333333333333333 0.04761904761904762 0.9047619047619049 0.04761904761904762 0.3333333333333333 0.3333333333333333 0.3333333333333333 0.3333333333333333 0.3333333333333333 0.3333333333333333</probabilities>
		</cpt>
		<cpt id="Copy_2_of_OVO">
			<state id="Normal" />
			<state id="High" />
			<state id="Low" />
			<parents>Copy_2_of_GV Copy_2_of_OV Copy_2_of_WV</parents>
			<probabilities>0.9980779949643467 0.001912395010474927 9.610025178265964e-06 0.006289308176100628 0.9874213836477985 0.006289308176100628 0.006289308176100628 0.006289308176100628 0.9874213836477987 0.006289308176100628 0.9874213836477985 0.006289308176100628 0.05555555555555556 0.888888888888889 0.05555555555555556 0.888888888888889 0.05555555555555556 0.05555555555555556 0.006289308176100628 0.9874213836477985 0.006289308176100628 0.05555555555555556 0.888888888888889 0.05555555555555556 0.888888888888889 0.05555555555555556 0.05555555555555556 0.0065359477124183 0.0065359477124183 0.9869281045751634 0.05555555555555555 0.05555555555555555 0.8888888888888888 0.05555555555555555 0.05555555555555555 0.8888888888888888 0.05555555555555556 0.888888888888889 0.05555555555555556 0.3333333333333333 0.3333333333333333 0.3333333333333333 0.3333333333333333 0.3333333333333333 0.3333333333333333 0.3333333333333333 0.3333333333333333 0.3333333333333333 0.3333333333333333 0.3333333333333333 0.3333333333333333 0.3333333333333333 0.3333333333333333 0.3333333333333333 0.006535947712418299 0.9869281045751632 0.006535947712418299 0.3333333333333333 0.3333333333333333 0.3333333333333333 0.05555555555555555 0.05555555555555555 0.8888888888888888 0.05555555555555556 0.888888888888889 0.05555555555555556 0.3333333333333333 0.3333333333333333 0.3333333333333333 0.3333333333333333 0.3333333333333333 0.3333333333333333 0.04761904761904762 0.9047619047619049 0.04761904761904762 0.3333333333333333 0.3333333333333333 0.3333333333333333 0.3333333333333333 0.3333333333333333 0.3333333333333333</probabilities>
		</cpt>
		<cpt id="Copy_2_of_WVO">
			<state id="Normal" />
			<state id="High" />
			<state id="Low" />
			<parents>Copy_2_of_GV Copy_2_of_OV Copy_2_of_WV</parents>
			<probabilities>0.9980491648888119 0.001797074708335736 0.0001537604028522554 0.006289308176100628 0.9874213836477985 0.006289308176100628 0.006289308176100628 0.9874213836477985 0.006289308176100628 0.006289308176100628 0.006289308176100628 0.9874213836477987 0.888888888888889 0.05555555555555556 0.05555555555555556 0.888888888888889 0.05555555555555556 0.05555555555555556 0.9874213836477985 0.006289308176100628 0.006289308176100628 0.05555555555555556 0.888888888888889 0.05555555555555556 0.05555555555555556 0.888888888888889 0.05555555555555556 0.0065359477124183 0.0065359477124183 0.9869281045751634 0.05555555555555556 0.888888888888889 0.05555555555555556 0.05555555555555556 0.888888888888889 0.05555555555555556 0.888888888888889 0.05555555555555556 0.05555555555555556 0.3333333333333333 0.3333333333333333 0.3333333333333333 0.3333333333333333 0.3333333333333333 0.3333333333333333 0.3333333333333333 0.3333333333333333 0.3333333333333333 0.3333333333333333 0.3333333333333333 0.3333333333333333 0.3333333333333333 0.3333333333333333 0.3333333333333333 0.006535947712418299 0.9869281045751632 0.006535947712418299 0.3333333333333333 0.3333333333333333 0.3333333333333333 0.05555555555555556 0.888888888888889 0.05555555555555556 0.05555555555555556 0.888888888888889 0.05555555555555556 0.3333333333333333 0.3333333333333333 0.3333333333333333 0.3333333333333333 0.3333333333333333 0.3333333333333333 0.04761904761904762 0.9047619047619049 0.04761904761904762 0.3333333333333333 0.3333333333333333 0.3333333333333333 0.3333333333333333 0.3333333333333333 0.3333333333333333</probabilities>
		</cpt>
		<cpt id="Copy_3_of_WL">
			<state id="Normal" />
			<state id="High" />
			<state id="Low" />
			<parents>Copy_3_of_GV Copy_3_of_OV Copy_3_of_WV</parents>
			<probabilities>0.9999807799496433 9.610025178265964e-06 9.610025178265964e-06 0.006289308176100628 0.9874213836477985 0.006289308176100628 0.006289308176100628 0.006289308176100628 0.9874213836477987 0.9874213836477985 0.006289308176100628 0.006289308176100628 0.05555555555555556 0.888888888888889 0.05555555555555556 0.05555555555555555 0.05555555555555555 0.8888888888888888 0.9874213836477985 0.006289308176100628 0.006289308176100628 0.05555555555555556 0.888888888888889 0.05555555555555556 0.05555555555555555 0.05555555555555555 0.8888888888888888 0.9869281045751632 0.006535947712418299 0.006535947712418299 0.05555555555555556 0.888888888888889 0.05555555555555556 0.05555555555555555 0.05555555555555555 0.8888888888888888 0.888888888888889 0.05555555555555556 0.05555555555555556 0.3333333333333333 0.3333333333333333 0.3333333333333333 0.3333333333333333 0.3333333333333333 0.3333333333333333 0.3333333333333333 0.3333333333333333 0.3333333333333333 0.3333333333333333 0.3333333333333333 0.3333333333333333 0.3333333333333333 0.3333333333333333 0.3333333333333333 0.9869281045751632 0.006535947712418299 0.006535947712418299 0.3333333333333333 0.3333333333333333 0.3333333333333333 0.05555555555555555 0.05555555555555555 0.8888888888888888 0.888888888888889 0.05555555555555556 0.05555555555555556 0.3333333333333333 0.3333333333333333 0.3333333333333333 0.3333333333333333 0.3333333333333333 0.3333333333333333 0.9047619047619049 0.04761904761904762 0.04761904761904762 0.3333333333333333 0.3333333333333333 0.3333333333333333 0.3333333333333333 0.3333333333333333 0.3333333333333333</probabilities>
		</cpt>
		<cpt id="Copy_3_of_R1OL">
			<state id="Normal" />
			<state id="High" />
			<state id="Low" />
			<parents>Copy_3_of_GV Copy_3_of_OV Copy_3_of_WV</parents>
			<probabilities>0.9999807799496433 9.610025178265964e-06 9.610025178265964e-06 0.006289308176100628 0.9874213836477985 0.006289308176100628 0.006289308176100628 0.006289308176100628 0.9874213836477987 0.006289308176100628 0.9874213836477985 0.006289308176100628 0.05555555555555556 0.888888888888889 0.05555555555555556 0.888888888888889 0.05555555555555556 0.05555555555555556 0.9874213836477985 0.006289308176100628 0.006289308176100628 0.05555555555555556 0.888888888888889 0.05555555555555556 0.05555555555555555 0.05555555555555555 0.8888888888888888 0.9869281045751632 0.006535947712418299 0.006535947712418299 0.888888888888889 0.05555555555555556 0.05555555555555556 0.05555555555555555 0.05555555555555555 0.8888888888888888 0.888888888888889 0.05555555555555556 0.05555555555555556 0.3333333333333333 0.3333333333333333 0.3333333333333333 0.3333333333333333 0.3333333333333333 0.3333333333333333 0.3333333333333333 0.3333333333333333 0.3333333333333333 0.3333333333333333 0.3333333333333333 0.3333333333333333 0.3333333333333333 0.3333333333333333 0.3333333333333333 0.006535947712418299 0.9869281045751632 0.006535947712418299 0.3333333333333333 0.3333333333333333 0.3333333333333333 0.888888888888889 0.05555555555555556 0.05555555555555556 0.888888888888889 0.05555555555555556 0.05555555555555556 0.3333333333333333 0.3333333333333333 0.3333333333333333 0.3333333333333333 0.3333333333333333 0.3333333333333333 0.9047619047619049 0.04761904761904762 0.04761904761904762 0.3333333333333333 0.3333333333333333 0.3333333333333333 0.3333333333333333 0.3333333333333333 0.3333333333333333</probabilities>
		</cpt>
		<cpt id="Copy_3_of_R2OL">
			<state id="Normal" />
			<state id="High" />
			<state id="Low" />
			<parents>Copy_3_of_GV Copy_3_of_OV Copy_3_of_WV</parents>
			<probabilities>0.9999807799496433 9.610025178265964e-06 9.610025178265964e-06 0.006289308176100628 0.9874213836477985 0.006289308176100628 0.9874213836477985 0.006289308176100628 0.006289308176100628 0.006289308176100628 0.9874213836477985 0.006289308176100628 0.05555555555555556 0.888888888888889 0.05555555555555556 0.05555555555555556 0.888888888888889 0.05555555555555556 0.006289308176100628 0.006289308176100628 0.9874213836477987 0.888888888888889 0.05555555555555556 0.05555555555555556 0.05555555555555555 0.05555555555555555 0.8888888888888888 0.9869281045751632 0.006535947712418299 0.006535947712418299 0.05555555555555556 0.888888888888889 0.05555555555555556 0.05555555555555555 0.05555555555555555 0.8888888888888888 0.888888888888889 0.05555555555555556 0.05555555555555556 0.3333333333333333 0.3333333333333333 0.3333333333333333 0.3333333333333333 0.3333333333333333 0.3333333333333333 0.3333333333333333 0.3333333333333333 0.3333333333333333 0.3333333333333333 0.3333333333333333 0.3333333333333333 0.3333333333333333 0.3333333333333333 0.3333333333333333 0.006535947712418299 0.9869281045751632 0.006535947712418299 0.3333333333333333 0.3333333333333333 0.3333333333333333 0.888888888888889 0.05555555555555556 0.05555555555555556 0.888888888888889 0.05555555555555556 0.05555555555555556 0.3333333333333333 0.3333333333333333 0.3333333333333333 0.3333333333333333 0.3333333333333333 0.3333333333333333 0.04761904761904762 0.04761904761904762 0.9047619047619047 0.3333333333333333 0.3333333333333333 0.3333333333333333 0.3333333333333333 0.3333333333333333 0.3333333333333333</probabilities>
		</cpt>
		<cpt id="Copy_3_of_VP">
			<state id="Normal" />
			<state id="High" />
			<state id="Low" />
			<parents>Copy_3_of_GV Copy_3_of_OV Copy_3_of_WV</parents>
			<probabilities>0.9949643468065885 0.003267408560610428 0.001768244632800938 0.006289308176100628 0.9874213836477985 0.006289308176100628 0.9874213836477985 0.006289308176100628 0.006289308176100628 0.006289308176100628 0.9874213836477985 0.006289308176100628 0.05555555555555556 0.888888888888889 0.05555555555555556 0.05555555555555556 0.888888888888889 0.05555555555555556 0.9874213836477985 0.006289308176100628 0.006289308176100628 0.05555555555555556 0.888888888888889 0.05555555555555556 0.888888888888889 0.05555555555555556 0.05555555555555556 0.006535947712418299 0.9869281045751632 0.006535947712418299 0.05555555555555556 0.888888888888889 0.05555555555555556 0.888888888888889 0.05555555555555556 0.05555555555555556 0.05555555555555556 0.888888888888889 0.05555555555555556 0.3333333333333333 0.3333333333333333 0.3333333333333333 0.3333333333333333 0.3333333333333333 0.3333333333333333 0.3333333333333333 0.3333333333333333 0.3333333333333333 0.3333333333333333 0.3333333333333333 0.3333333333333333 0.3333333333333333 0.3333333333333333 0.3333333333333333 0.0065359477124183 0.0065359477124183 0.9869281045751634 0.3333333333333333 0.3333333333333333 0.3333333333333333 0.888888888888889 0.05555555555555556 0.05555555555555556 0.05555555555555555 0.05555555555555555 0.8888888888888888 0.3333333333333333 0.3333333333333333 0.3333333333333333 0.3333333333333333 0.3333333333333333 0.3333333333333333 0.04761904761904762 0.04761904761904762 0.9047619047619047 0.3333333333333333 0.3333333333333333 0.3333333333333333 0.3333333333333333 0.3333333333333333 0.3333333333333333</probabilities>
		</cpt>
		<cpt id="Copy_3_of_GVO">
			<state id="Normal" />
			<state id="High" />
			<state id="Low" />
			<parents>Copy_3_of_GV Copy_3_of_OV Copy_3_of_WV</parents>
			<probabilities>0.9985104460973686 9.610025178265964e-06 0.001479943877452959 0.006289308176100628 0.9874213836477985 0.006289308176100628 0.006289308176100628 0.006289308176100628 0.9874213836477987 0.006289308176100628 0.9874213836477985 0.006289308176100628 0.05555555555555556 0.888888888888889 0.05555555555555556 0.888888888888889 0.05555555555555556 0.05555555555555556 0.006289308176100628 0.006289308176100628 0.9874213836477987 0.888888888888889 0.05555555555555556 0.05555555555555556 0.05555555555555555 0.05555555555555555 0.8888888888888888 0.006535947712418299 0.9869281045751632 0.006535947712418299 0.05555555555555556 0.888888888888889 0.05555555555555556 0.05555555555555556 0.888888888888889 0.05555555555555556 0.05555555555555556 0.888888888888889 0.05555555555555556 0.3333333333333333 0.3333333333333333 0.3333333333333333 0.3333333333333333 0.3333333333333333 0.3333333333333333 0.3333333333333333 0.3333333333333333 0.3333333333333333 0.3333333333333333 0.3333333333333333 0.3333333333333333 0.3333333333333333 0.3333333333333333 0.3333333333333333 0.006535947712418299 0.9869281045751632 0.006535947712418299 0.3333333333333333 0.3333333333333333 0.3333333333333333 0.888888888888889 0.05555555555555556 0.05555555555555556 0.05555555555555556 0.888888888888889 0.05555555555555556 0.3333333333333333 0.3333333333333333 0.3333333333333333 0.3333333333333333 0.3333333333333333 0.3333333333333333 0.04761904761904762 0.9047619047619049 0.04761904761904762 0.3333333333333333 0.3333333333333333 0.3333333333333333 0.3333333333333333 0.3333333333333333 0.3333333333333333</probabilities>
		</cpt>
		<cpt id="Copy_3_of_OVO">
			<state id="Normal" />
			<state id="High" />
			<state id="Low" />
			<parents>Copy_3_of_GV Copy_3_of_OV Copy_3_of_WV</parents>
			<probabilities>0.9980779949643467 0.001912395010474927 9.610025178265964e-06 0.006289308176100628 0.9874213836477985 0.006289308176100628 0.006289308176100628 0.006289308176100628 0.9874213836477987 0.006289308176100628 0.9874213836477985 0.006289308176100628 0.05555555555555556 0.888888888888889 0.05555555555555556 0.888888888888889 0.05555555555555556 0.05555555555555556 0.006289308176100628 0.9874213836477985 0.006289308176100628 0.05555555555555556 0.888888888888889 0.05555555555555556 0.888888888888889 0.05555555555555556 0.05555555555555556 0.0065359477124183 0.0065359477124183 0.9869281045751634 0.05555555555555555 0.05555555555555555 0.8888888888888888 0.05555555555555555 0.05555555555555555 0.8888888888888888 0.05555555555555556 0.888888888888889 0.05555555555555556 0.3333333333333333 0.3333333333333333 0.3333333333333333 0.3333333333333333 0.3333333333333333 0.3333333333333333 0.3333333333333333 0.3333333333333333 0.3333333333333333 0.3333333333333333 0.3333333333333333 0.3333333333333333 0.3333333333333333 0.3333333333333333 0.3333333333333333 0.006535947712418299 0.9869281045751632 0.006535947712418299 0.3333333333333333 0.3333333333333333 0.3333333333333333 0.05555555555555555 0.05555555555555555 0.8888888888888888 0.05555555555555556 0.888888888888889 0.05555555555555556 0.3333333333333333 0.3333333333333333 0.3333333333333333 0.3333333333333333 0.3333333333333333 0.3333333333333333 0.04761904761904762 0.9047619047619049 0.04761904761904762 0.3333333333333333 0.3333333333333333 0.3333333333333333 0.3333333333333333 0.3333333333333333 0.3333333333333333</probabilities>
		</cpt>
		<cpt id="Copy_3_of_WVO">
			<state id="Normal" />
			<state id="High" />
			<state id="Low" />
			<parents>Copy_3_of_GV Copy_3_of_OV Copy_3_of_WV</parents>
			<probabilities>0.9980491648888119 0.001797074708335736 0.0001537604028522554 0.006289308176100628 0.9874213836477985 0.006289308176100628 0.006289308176100628 0.9874213836477985 0.006289308176100628 0.006289308176100628 0.006289308176100628 0.9874213836477987 0.888888888888889 0.05555555555555556 0.05555555555555556 0.888888888888889 0.05555555555555556 0.05555555555555556 0.9874213836477985 0.006289308176100628 0.006289308176100628 0.05555555555555556 0.888888888888889 0.05555555555555556 0.05555555555555556 0.888888888888889 0.05555555555555556 0.0065359477124183 0.0065359477124183 0.9869281045751634 0.05555555555555556 0.888888888888889 0.05555555555555556 0.05555555555555556 0.888888888888889 0.05555555555555556 0.888888888888889 0.05555555555555556 0.05555555555555556 0.3333333333333333 0.3333333333333333 0.3333333333333333 0.3333333333333333 0.3333333333333333 0.3333333333333333 0.3333333333333333 0.3333333333333333 0.3333333333333333 0.3333333333333333 0.3333333333333333 0.3333333333333333 0.3333333333333333 0.3333333333333333 0.3333333333333333 0.006535947712418299 0.9869281045751632 0.006535947712418299 0.3333333333333333 0.3333333333333333 0.3333333333333333 0.05555555555555556 0.888888888888889 0.05555555555555556 0.05555555555555556 0.888888888888889 0.05555555555555556 0.3333333333333333 0.3333333333333333 0.3333333333333333 0.3333333333333333 0.3333333333333333 0.3333333333333333 0.04761904761904762 0.9047619047619049 0.04761904761904762 0.3333333333333333 0.3333333333333333 0.3333333333333333 0.3333333333333333 0.3333333333333333 0.3333333333333333</probabilities>
		</cpt>
		<cpt id="Copy_4_of_GV">
			<state id="Normal" />
			<state id="Blockage" />
			<state id="Leak" />
			<parents>Copy_2_of_GV</parents>
			<probabilities>0.9998737680000001 9.81538e-05 2.807819999994839e-05 0.39346934 0.60653066 0 0.39346934 0 0.60653066</probabilities>
		</cpt>
		<cpt id="Copy_4_of_OV">
			<state id="Normal" />
			<state id="Blockage" />
			<state id="Leak" />
			<parents>Copy_2_of_OV</parents>
			<probabilities>0.9998737680000001 9.81538e-05 2.807819999994839e-05 0.39346934 0.60653066 0 0.39346934 0 0.60653066</probabilities>
		</cpt>
		<cpt id="Copy_4_of_WV">
			<state id="Normal" />
			<state id="Blockage" />
			<state id="Leak" />
			<parents>Copy_2_of_WV</parents>
			<probabilities>0.9998737680000001 9.81538e-05 2.807819999994839e-05 0.39346934 0.60653066 0 0.39346934 0 0.60653066</probabilities>
		</cpt>
		<cpt id="Copy_4_of_WOR">
			<state id="Normal" />
			<state id="High" />
			<state id="Low" />
			<parents>Copy_4_of_GV Copy_4_of_OV Copy_4_of_WV</parents>
			<probabilities>0.9933498625766398 0.004881892790559111 0.001768244632800938 0.006289308176100628 0.006289308176100628 0.9874213836477987 0.006289308176100628 0.9874213836477985 0.006289308176100628 0.006289308176100628 0.006289308176100628 0.9874213836477987 0.05555555555555555 0.05555555555555555 0.8888888888888888 0.05555555555555556 0.888888888888889 0.05555555555555556 0.9874213836477985 0.006289308176100628 0.006289308176100628 0.05555555555555555 0.05555555555555555 0.8888888888888888 0.05555555555555556 0.888888888888889 0.05555555555555556 0.0065359477124183 0.0065359477124183 0.9869281045751634 0.05555555555555555 0.05555555555555555 0.8888888888888888 0.05555555555555556 0.888888888888889 0.05555555555555556 0.888888888888889 0.05555555555555556 0.05555555555555556 0.3333333333333333 0.3333333333333333 0.3333333333333333 0.3333333333333333 0.3333333333333333 0.3333333333333333 0.3333333333333333 0.3333333333333333 0.3333333333333333 0.3333333333333333 0.3333333333333333 0.3333333333333333 0.3333333333333333 0.3333333333333333 0.3333333333333333 0.006535947712418299 0.9869281045751632 0.006535947712418299 0.3333333333333333 0.3333333333333333 0.3333333333333333 0.05555555555555556 0.888888888888889 0.05555555555555556 0.05555555555555556 0.888888888888889 0.05555555555555556 0.3333333333333333 0.3333333333333333 0.3333333333333333 0.3333333333333333 0.3333333333333333 0.3333333333333333 0.04761904761904762 0.9047619047619049 0.04761904761904762 0.3333333333333333 0.3333333333333333 0.3333333333333333 0.3333333333333333 0.3333333333333333 0.3333333333333333</probabilities>
		</cpt>
		<cpt id="Copy_5_of_GV">
			<state id="Normal" />
			<state id="Blockage" />
			<state id="Leak" />
			<parents>Copy_3_of_GV</parents>
			<probabilities>0.9998737680000001 9.81538e-05 2.807819999994839e-05 0.39346934 0.60653066 0 0.39346934 0 0.60653066</probabilities>
		</cpt>
		<cpt id="Copy_5_of_OV">
			<state id="Normal" />
			<state id="Blockage" />
			<state id="Leak" />
			<parents>Copy_3_of_OV</parents>
			<probabilities>0.9998737680000001 9.81538e-05 2.807819999994839e-05 0.39346934 0.60653066 0 0.39346934 0 0.60653066</probabilities>
		</cpt>
		<cpt id="Copy_5_of_WV">
			<state id="Normal" />
			<state id="Blockage" />
			<state id="Leak" />
			<parents>Copy_3_of_WV</parents>
			<probabilities>0.9998737680000001 9.81538e-05 2.807819999994839e-05 0.39346934 0.60653066 0 0.39346934 0 0.60653066</probabilities>
		</cpt>
		<cpt id="Copy_5_of_WOR">
			<state id="Normal" />
			<state id="High" />
			<state id="Low" />
			<parents>Copy_5_of_GV Copy_5_of_OV Copy_5_of_WV</parents>
			<probabilities>0.9933498625766398 0.004881892790559111 0.001768244632800938 0.006289308176100628 0.006289308176100628 0.9874213836477987 0.006289308176100628 0.9874213836477985 0.006289308176100628 0.006289308176100628 0.006289308176100628 0.9874213836477987 0.05555555555555555 0.05555555555555555 0.8888888888888888 0.05555555555555556 0.888888888888889 0.05555555555555556 0.9874213836477985 0.006289308176100628 0.006289308176100628 0.05555555555555555 0.05555555555555555 0.8888888888888888 0.05555555555555556 0.888888888888889 0.05555555555555556 0.0065359477124183 0.0065359477124183 0.9869281045751634 0.05555555555555555 0.05555555555555555 0.8888888888888888 0.05555555555555556 0.888888888888889 0.05555555555555556 0.888888888888889 0.05555555555555556 0.05555555555555556 0.3333333333333333 0.3333333333333333 0.3333333333333333 0.3333333333333333 0.3333333333333333 0.3333333333333333 0.3333333333333333 0.3333333333333333 0.3333333333333333 0.3333333333333333 0.3333333333333333 0.3333333333333333 0.3333333333333333 0.3333333333333333 0.3333333333333333 0.006535947712418299 0.9869281045751632 0.006535947712418299 0.3333333333333333 0.3333333333333333 0.3333333333333333 0.05555555555555556 0.888888888888889 0.05555555555555556 0.05555555555555556 0.888888888888889 0.05555555555555556 0.3333333333333333 0.3333333333333333 0.3333333333333333 0.3333333333333333 0.3333333333333333 0.3333333333333333 0.04761904761904762 0.9047619047619049 0.04761904761904762 0.3333333333333333 0.3333333333333333 0.3333333333333333 0.3333333333333333 0.3333333333333333 0.3333333333333333</probabilities>
		</cpt>
		<cpt id="Copy_2_of_TOWF">
			<state id="Normal" />
			<state id="Abnormal" />
			<parents>Copy_4_of_WOR Copy_5_of_WOR</parents>
			<probabilities>0.99 0.01000000000000001 0.2 0.8 0.2 0.8 0.2 0.8 0.01 0.99 0.6 0.4000000000000001 0.2 0.8 0.6 0.4000000000000001 0.01 0.99</probabilities>
		</cpt>
		<cpt id="Copy_4_of_OOR">
			<state id="Normal" />
			<state id="High" />
			<state id="Low" />
			<parents>Copy_4_of_GV Copy_4_of_OV Copy_4_of_WV</parents>
			<probabilities>0.9934940129543138 0.004737742412885121 0.001768244632800938 0.006289308176100628 0.9874213836477985 0.006289308176100628 0.006289308176100628 0.006289308176100628 0.9874213836477987 0.006289308176100628 0.006289308176100628 0.9874213836477987 0.05555555555555555 0.05555555555555555 0.8888888888888888 0.05555555555555555 0.05555555555555555 0.8888888888888888 0.006289308176100628 0.9874213836477985 0.006289308176100628 0.05555555555555556 0.888888888888889 0.05555555555555556 0.888888888888889 0.05555555555555556 0.05555555555555556 0.0065359477124183 0.0065359477124183 0.9869281045751634 0.05555555555555555 0.05555555555555555 0.8888888888888888 0.05555555555555555 0.05555555555555555 0.8888888888888888 0.05555555555555555 0.05555555555555555 0.8888888888888888 0.3333333333333333 0.3333333333333333 0.3333333333333333 0.3333333333333333 0.3333333333333333 0.3333333333333333 0.3333333333333333 0.3333333333333333 0.3333333333333333 0.3333333333333333 0.3333333333333333 0.3333333333333333 0.3333333333333333 0.3333333333333333 0.3333333333333333 0.006535947712418299 0.9869281045751632 0.006535947712418299 0.3333333333333333 0.3333333333333333 0.3333333333333333 0.05555555555555555 0.05555555555555555 0.8888888888888888 0.05555555555555555 0.05555555555555555 0.8888888888888888 0.3333333333333333 0.3333333333333333 0.3333333333333333 0.3333333333333333 0.3333333333333333 0.3333333333333333 0.04761904761904762 0.9047619047619049 0.04761904761904762 0.3333333333333333 0.3333333333333333 0.3333333333333333 0.3333333333333333 0.3333333333333333 0.3333333333333333</probabilities>
		</cpt>
		<cpt id="Copy_5_of_OOR">
			<state id="Normal" />
			<state id="High" />
			<state id="Low" />
			<parents>Copy_5_of_GV Copy_5_of_OV Copy_5_of_WV</parents>
			<probabilities>0.9934940129543138 0.004737742412885121 0.001768244632800938 0.006289308176100628 0.9874213836477985 0.006289308176100628 0.006289308176100628 0.006289308176100628 0.9874213836477987 0.006289308176100628 0.006289308176100628 0.9874213836477987 0.05555555555555555 0.05555555555555555 0.8888888888888888 0.05555555555555555 0.05555555555555555 0.8888888888888888 0.006289308176100628 0.9874213836477985 0.006289308176100628 0.05555555555555556 0.888888888888889 0.05555555555555556 0.888888888888889 0.05555555555555556 0.05555555555555556 0.0065359477124183 0.0065359477124183 0.9869281045751634 0.05555555555555555 0.05555555555555555 0.8888888888888888 0.05555555555555555 0.05555555555555555 0.8888888888888888 0.05555555555555555 0.05555555555555555 0.8888888888888888 0.3333333333333333 0.3333333333333333 0.3333333333333333 0.3333333333333333 0.3333333333333333 0.3333333333333333 0.3333333333333333 0.3333333333333333 0.3333333333333333 0.3333333333333333 0.3333333333333333 0.3333333333333333 0.3333333333333333 0.3333333333333333 0.3333333333333333 0.006535947712418299 0.9869281045751632 0.006535947712418299 0.3333333333333333 0.3333333333333333 0.3333333333333333 0.05555555555555555 0.05555555555555555 0.8888888888888888 0.05555555555555555 0.05555555555555555 0.8888888888888888 0.3333333333333333 0.3333333333333333 0.3333333333333333 0.3333333333333333 0.3333333333333333 0.3333333333333333 0.04761904761904762 0.9047619047619049 0.04761904761904762 0.3333333333333333 0.3333333333333333 0.3333333333333333 0.3333333333333333 0.3333333333333333 0.3333333333333333</probabilities>
		</cpt>
		<cpt id="Copy_2_of_TOOF">
			<state id="Normal" />
			<state id="Abnormal" />
			<parents>Copy_4_of_OOR Copy_5_of_OOR</parents>
			<probabilities>0.99 0.01000000000000001 0.2 0.8 0.2 0.8 0.2 0.8 0.01 0.99 0.6 0.4000000000000001 0.2 0.8 0.6 0.4000000000000001 0.01 0.99</probabilities>
		</cpt>
		<cpt id="Copy_4_of_GOR">
			<state id="Normal" />
			<state id="High" />
			<state id="Low" />
			<parents>Copy_4_of_GV Copy_4_of_OV Copy_4_of_WV</parents>
			<probabilities>0.9948201964289145 0.003267408560610428 0.001912395010474927 0.006289308176100628 0.9874213836477985 0.006289308176100628 0.006289308176100628 0.006289308176100628 0.9874213836477987 0.006289308176100628 0.9874213836477985 0.006289308176100628 0.05555555555555556 0.888888888888889 0.05555555555555556 0.05555555555555556 0.888888888888889 0.05555555555555556 0.006289308176100628 0.006289308176100628 0.9874213836477987 0.888888888888889 0.05555555555555556 0.05555555555555556 0.05555555555555555 0.05555555555555555 0.8888888888888888 0.0065359477124183 0.0065359477124183 0.9869281045751634 0.05555555555555555 0.05555555555555555 0.8888888888888888 0.05555555555555555 0.05555555555555555 0.8888888888888888 0.05555555555555555 0.05555555555555555 0.8888888888888888 0.3333333333333333 0.3333333333333333 0.3333333333333333 0.3333333333333333 0.3333333333333333 0.3333333333333333 0.3333333333333333 0.3333333333333333 0.3333333333333333 0.3333333333333333 0.3333333333333333 0.3333333333333333 0.3333333333333333 0.3333333333333333 0.3333333333333333 0.006535947712418299 0.9869281045751632 0.006535947712418299 0.3333333333333333 0.3333333333333333 0.3333333333333333 0.888888888888889 0.05555555555555556 0.05555555555555556 0.05555555555555556 0.888888888888889 0.05555555555555556 0.3333333333333333 0.3333333333333333 0.3333333333333333 0.3333333333333333 0.3333333333333333 0.3333333333333333 0.04761904761904762 0.9047619047619049 0.04761904761904762 0.3333333333333333 0.3333333333333333 0.3333333333333333 0.3333333333333333 0.3333333333333333 0.3333333333333333</probabilities>
		</cpt>
		<cpt id="Copy_5_of_GOR">
			<state id="Normal" />
			<state id="High" />
			<state id="Low" />
			<parents>Copy_5_of_GV Copy_5_of_OV Copy_5_of_WV</parents>
			<probabilities>0.9948201964289145 0.003267408560610428 0.001912395010474927 0.006289308176100628 0.9874213836477985 0.006289308176100628 0.006289308176100628 0.006289308176100628 0.9874213836477987 0.006289308176100628 0.9874213836477985 0.006289308176100628 0.05555555555555556 0.888888888888889 0.05555555555555556 0.05555555555555556 0.888888888888889 0.05555555555555556 0.006289308176100628 0.006289308176100628 0.9874213836477987 0.888888888888889 0.05555555555555556 0.05555555555555556 0.05555555555555555 0.05555555555555555 0.8888888888888888 0.0065359477124183 0.0065359477124183 0.9869281045751634 0.05555555555555555 0.05555555555555555 0.8888888888888888 0.05555555555555555 0.05555555555555555 0.8888888888888888 0.05555555555555555 0.05555555555555555 0.8888888888888888 0.3333333333333333 0.3333333333333333 0.3333333333333333 0.3333333333333333 0.3333333333333333 0.3333333333333333 0.3333333333333333 0.3333333333333333 0.3333333333333333 0.3333333333333333 0.3333333333333333 0.3333333333333333 0.3333333333333333 0.3333333333333333 0.3333333333333333 0.006535947712418299 0.9869281045751632 0.006535947712418299 0.3333333333333333 0.3333333333333333 0.3333333333333333 0.888888888888889 0.05555555555555556 0.05555555555555556 0.05555555555555556 0.888888888888889 0.05555555555555556 0.3333333333333333 0.3333333333333333 0.3333333333333333 0.3333333333333333 0.3333333333333333 0.3333333333333333 0.04761904761904762 0.9047619047619049 0.04761904761904762 0.3333333333333333 0.3333333333333333 0.3333333333333333 0.3333333333333333 0.3333333333333333 0.3333333333333333</probabilities>
		</cpt>
		<cpt id="Copy_2_of_TOGF">
			<state id="Normal" />
			<state id="Abnormal" />
			<parents>Copy_4_of_GOR Copy_5_of_GOR</parents>
			<probabilities>0.99 0.01000000000000001 0.2 0.8 0.2 0.8 0.2 0.8 0.01 0.99 0.6 0.4000000000000001 0.2 0.8 0.6 0.4000000000000001 0.01 0.99</probabilities>
		</cpt>
		<cpt id="Copy_4_of_WL">
			<state id="Normal" />
			<state id="High" />
			<state id="Low" />
			<parents>Copy_4_of_GV Copy_4_of_OV Copy_4_of_WV</parents>
			<probabilities>0.9999807799496433 9.610025178265964e-06 9.610025178265964e-06 0.006289308176100628 0.9874213836477985 0.006289308176100628 0.006289308176100628 0.006289308176100628 0.9874213836477987 0.9874213836477985 0.006289308176100628 0.006289308176100628 0.05555555555555556 0.888888888888889 0.05555555555555556 0.05555555555555555 0.05555555555555555 0.8888888888888888 0.9874213836477985 0.006289308176100628 0.006289308176100628 0.05555555555555556 0.888888888888889 0.05555555555555556 0.05555555555555555 0.05555555555555555 0.8888888888888888 0.9869281045751632 0.006535947712418299 0.006535947712418299 0.05555555555555556 0.888888888888889 0.05555555555555556 0.05555555555555555 0.05555555555555555 0.8888888888888888 0.888888888888889 0.05555555555555556 0.05555555555555556 0.3333333333333333 0.3333333333333333 0.3333333333333333 0.3333333333333333 0.3333333333333333 0.3333333333333333 0.3333333333333333 0.3333333333333333 0.3333333333333333 0.3333333333333333 0.3333333333333333 0.3333333333333333 0.3333333333333333 0.3333333333333333 0.3333333333333333 0.9869281045751632 0.006535947712418299 0.006535947712418299 0.3333333333333333 0.3333333333333333 0.3333333333333333 0.05555555555555555 0.05555555555555555 0.8888888888888888 0.888888888888889 0.05555555555555556 0.05555555555555556 0.3333333333333333 0.3333333333333333 0.3333333333333333 0.3333333333333333 0.3333333333333333 0.3333333333333333 0.9047619047619049 0.04761904761904762 0.04761904761904762 0.3333333333333333 0.3333333333333333 0.3333333333333333 0.3333333333333333 0.3333333333333333 0.3333333333333333</probabilities>
		</cpt>
		<cpt id="Copy_4_of_R1OL">
			<state id="Normal" />
			<state id="High" />
			<state id="Low" />
			<parents>Copy_4_of_GV Copy_4_of_OV Copy_4_of_WV</parents>
			<probabilities>0.9999807799496433 9.610025178265964e-06 9.610025178265964e-06 0.006289308176100628 0.9874213836477985 0.006289308176100628 0.006289308176100628 0.006289308176100628 0.9874213836477987 0.006289308176100628 0.9874213836477985 0.006289308176100628 0.05555555555555556 0.888888888888889 0.05555555555555556 0.888888888888889 0.05555555555555556 0.05555555555555556 0.9874213836477985 0.006289308176100628 0.006289308176100628 0.05555555555555556 0.888888888888889 0.05555555555555556 0.05555555555555555 0.05555555555555555 0.8888888888888888 0.9869281045751632 0.006535947712418299 0.006535947712418299 0.888888888888889 0.05555555555555556 0.05555555555555556 0.05555555555555555 0.05555555555555555 0.8888888888888888 0.888888888888889 0.05555555555555556 0.05555555555555556 0.3333333333333333 0.3333333333333333 0.3333333333333333 0.3333333333333333 0.3333333333333333 0.3333333333333333 0.3333333333333333 0.3333333333333333 0.3333333333333333 0.3333333333333333 0.3333333333333333 0.3333333333333333 0.3333333333333333 0.3333333333333333 0.3333333333333333 0.006535947712418299 0.9869281045751632 0.006535947712418299 0.3333333333333333 0.3333333333333333 0.3333333333333333 0.888888888888889 0.05555555555555556 0.05555555555555556 0.888888888888889 0.05555555555555556 0.05555555555555556 0.3333333333333333 0.3333333333333333 0.3333333333333333 0.3333333333333333 0.3333333333333333 0.3333333333333333 0.9047619047619049 0.04761904761904762 0.04761904761904762 0.3333333333333333 0.3333333333333333 0.3333333333333333 0.3333333333333333 0.3333333333333333 0.3333333333333333</probabilities>
		</cpt>
		<cpt id="Copy_4_of_R2OL">
			<state id="Normal" />
			<state id="High" />
			<state id="Low" />
			<parents>Copy_4_of_GV Copy_4_of_OV Copy_4_of_WV</parents>
			<probabilities>0.9999807799496433 9.610025178265964e-06 9.610025178265964e-06 0.006289308176100628 0.9874213836477985 0.006289308176100628 0.9874213836477985 0.006289308176100628 0.006289308176100628 0.006289308176100628 0.9874213836477985 0.006289308176100628 0.05555555555555556 0.888888888888889 0.05555555555555556 0.05555555555555556 0.888888888888889 0.05555555555555556 0.006289308176100628 0.006289308176100628 0.9874213836477987 0.888888888888889 0.05555555555555556 0.05555555555555556 0.05555555555555555 0.05555555555555555 0.8888888888888888 0.9869281045751632 0.006535947712418299 0.006535947712418299 0.05555555555555556 0.888888888888889 0.05555555555555556 0.05555555555555555 0.05555555555555555 0.8888888888888888 0.888888888888889 0.05555555555555556 0.05555555555555556 0.3333333333333333 0.3333333333333333 0.3333333333333333 0.3333333333333333 0.3333333333333333 0.3333333333333333 0.3333333333333333 0.3333333333333333 0.3333333333333333 0.3333333333333333 0.3333333333333333 0.3333333333333333 0.3333333333333333 0.3333333333333333 0.3333333333333333 0.006535947712418299 0.9869281045751632 0.006535947712418299 0.3333333333333333 0.3333333333333333 0.3333333333333333 0.888888888888889 0.05555555555555556 0.05555555555555556 0.888888888888889 0.05555555555555556 0.05555555555555556 0.3333333333333333 0.3333333333333333 0.3333333333333333 0.3333333333333333 0.3333333333333333 0.3333333333333333 0.04761904761904762 0.04761904761904762 0.9047619047619047 0.3333333333333333 0.3333333333333333 0.3333333333333333 0.3333333333333333 0.3333333333333333 0.3333333333333333</probabilities>
		</cpt>
		<cpt id="Copy_4_of_VP">
			<state id="Normal" />
			<state id="High" />
			<state id="Low" />
			<parents>Copy_4_of_GV Copy_4_of_OV Copy_4_of_WV</parents>
			<probabilities>0.9949643468065885 0.003267408560610428 0.001768244632800938 0.006289308176100628 0.9874213836477985 0.006289308176100628 0.9874213836477985 0.006289308176100628 0.006289308176100628 0.006289308176100628 0.9874213836477985 0.006289308176100628 0.05555555555555556 0.888888888888889 0.05555555555555556 0.05555555555555556 0.888888888888889 0.05555555555555556 0.9874213836477985 0.006289308176100628 0.006289308176100628 0.05555555555555556 0.888888888888889 0.05555555555555556 0.888888888888889 0.05555555555555556 0.05555555555555556 0.006535947712418299 0.9869281045751632 0.006535947712418299 0.05555555555555556 0.888888888888889 0.05555555555555556 0.888888888888889 0.05555555555555556 0.05555555555555556 0.05555555555555556 0.888888888888889 0.05555555555555556 0.3333333333333333 0.3333333333333333 0.3333333333333333 0.3333333333333333 0.3333333333333333 0.3333333333333333 0.3333333333333333 0.3333333333333333 0.3333333333333333 0.3333333333333333 0.3333333333333333 0.3333333333333333 0.3333333333333333 0.3333333333333333 0.3333333333333333 0.0065359477124183 0.0065359477124183 0.9869281045751634 0.3333333333333333 0.3333333333333333 0.3333333333333333 0.888888888888889 0.05555555555555556 0.05555555555555556 0.05555555555555555 0.05555555555555555 0.8888888888888888 0.3333333333333333 0.3333333333333333 0.3333333333333333 0.3333333333333333 0.3333333333333333 0.3333333333333333 0.04761904761904762 0.04761904761904762 0.9047619047619047 0.3333333333333333 0.3333333333333333 0.3333333333333333 0.3333333333333333 0.3333333333333333 0.3333333333333333</probabilities>
		</cpt>
		<cpt id="Copy_4_of_GVO">
			<state id="Normal" />
			<state id="High" />
			<state id="Low" />
			<parents>Copy_4_of_GV Copy_4_of_OV Copy_4_of_WV</parents>
			<probabilities>0.9985104460973686 9.610025178265964e-06 0.001479943877452959 0.006289308176100628 0.9874213836477985 0.006289308176100628 0.006289308176100628 0.006289308176100628 0.9874213836477987 0.006289308176100628 0.9874213836477985 0.006289308176100628 0.05555555555555556 0.888888888888889 0.05555555555555556 0.888888888888889 0.05555555555555556 0.05555555555555556 0.006289308176100628 0.006289308176100628 0.9874213836477987 0.888888888888889 0.05555555555555556 0.05555555555555556 0.05555555555555555 0.05555555555555555 0.8888888888888888 0.006535947712418299 0.9869281045751632 0.006535947712418299 0.05555555555555556 0.888888888888889 0.05555555555555556 0.05555555555555556 0.888888888888889 0.05555555555555556 0.05555555555555556 0.888888888888889 0.05555555555555556 0.3333333333333333 0.3333333333333333 0.3333333333333333 0.3333333333333333 0.3333333333333333 0.3333333333333333 0.3333333333333333 0.3333333333333333 0.3333333333333333 0.3333333333333333 0.3333333333333333 0.3333333333333333 0.3333333333333333 0.3333333333333333 0.3333333333333333 0.006535947712418299 0.9869281045751632 0.006535947712418299 0.3333333333333333 0.3333333333333333 0.3333333333333333 0.888888888888889 0.05555555555555556 0.05555555555555556 0.05555555555555556 0.888888888888889 0.05555555555555556 0.3333333333333333 0.3333333333333333 0.3333333333333333 0.3333333333333333 0.3333333333333333 0.3333333333333333 0.04761904761904762 0.9047619047619049 0.04761904761904762 0.3333333333333333 0.3333333333333333 0.3333333333333333 0.3333333333333333 0.3333333333333333 0.3333333333333333</probabilities>
		</cpt>
		<cpt id="Copy_4_of_OVO">
			<state id="Normal" />
			<state id="High" />
			<state id="Low" />
			<parents>Copy_4_of_GV Copy_4_of_OV Copy_4_of_WV</parents>
			<probabilities>0.9980779949643467 0.001912395010474927 9.610025178265964e-06 0.006289308176100628 0.9874213836477985 0.006289308176100628 0.006289308176100628 0.006289308176100628 0.9874213836477987 0.006289308176100628 0.9874213836477985 0.006289308176100628 0.05555555555555556 0.888888888888889 0.05555555555555556 0.888888888888889 0.05555555555555556 0.05555555555555556 0.006289308176100628 0.9874213836477985 0.006289308176100628 0.05555555555555556 0.888888888888889 0.05555555555555556 0.888888888888889 0.05555555555555556 0.05555555555555556 0.0065359477124183 0.0065359477124183 0.9869281045751634 0.05555555555555555 0.05555555555555555 0.8888888888888888 0.05555555555555555 0.05555555555555555 0.8888888888888888 0.05555555555555556 0.888888888888889 0.05555555555555556 0.3333333333333333 0.3333333333333333 0.3333333333333333 0.3333333333333333 0.3333333333333333 0.3333333333333333 0.3333333333333333 0.3333333333333333 0.3333333333333333 0.3333333333333333 0.3333333333333333 0.3333333333333333 0.3333333333333333 0.3333333333333333 0.3333333333333333 0.006535947712418299 0.9869281045751632 0.006535947712418299 0.3333333333333333 0.3333333333333333 0.3333333333333333 0.05555555555555555 0.05555555555555555 0.8888888888888888 0.05555555555555556 0.888888888888889 0.05555555555555556 0.3333333333333333 0.3333333333333333 0.3333333333333333 0.3333333333333333 0.3333333333333333 0.3333333333333333 0.04761904761904762 0.9047619047619049 0.04761904761904762 0.3333333333333333 0.3333333333333333 0.3333333333333333 0.3333333333333333 0.3333333333333333 0.3333333333333333</probabilities>
		</cpt>
